-0.230026995
-1.325804813
0.304342558
1.527657246
0.998066787
0.238608214
0.019027852
0.1752579
0.340114944
-0.648621038
0.127457326
1.347370583
-0.35230165
1.705724044
-0.936583022
-0.86728151
0.978153981
1.115271929
-1.187626001
0.592946029
-1.026311137
-1.685391491
0.339171009
-1.142061345
0.133922581
-0.228240349
-0.654712512
0.628122402
0.49071596
-1.071915087
0.999882376
1.89973673
0.498846315
-0.652257824
1.210561102
1.146606912
0.000191278
-1.38724097
-0.290953969
1.839842015
2.639894241
-0.289343862
0.188524113
0.260994398
0.393265194
-0.698720627
1.256007887
1.041310626
-0.099588029
0.424849101
0.744267442
-0.958004148
-0.128858583
0.717893062
1.213115437
0.107120466
-0.145648302
0.201359982
-1.052527669
0.041080609
1.646158507
1.296084729
0.175198254
-0.613113099
0.62304772
-1.476779297
-1.173905243
0.69116841
-1.608823095
-0.04617049
1.140302462
0.058982808
1.240144975
-1.139326423
0.235807773
-1.03070472
-2.285053215
-0.397802408
1.623626388
0.574100784
0.650052718
0.482365976
-0.480863441
0.464827414
0.105591019
-1.141529545
-0.415544563
1.413231683
-0.699438325
-0.370674704
-0.68140897
0.078005496
0.049300985
1.077039803
0.766400083
-0.578105538
-0.566245188
-1.025762022
-0.000625511
0.015960972
0.874464505
-0.761350499
0.003366774
-1.572136709
-0.502615495
-0.430681739
-0.51611991
0.055761281
0.072449069
0.170642365
-0.383809607
-0.972128475
-0.400637661
-0.249571111
0.200987096
-0.843546819
-1.286419424
-0.020905251
-1.656095661
-0.191132949
0.112355607
0.059666924
-1.696531718
-0.643774403
0.23277777
1.456226173
-0.207733309
0.265797866
0.069701113
-0.896092354
0.33131956
0.059284109
-1.358530534
0.662646049
-0.801076716
0.930156413
-0.54541162
0.04323824
0.50005384
-1.072886445
0.920403765
-0.132440788
0.988038493
-1.613757517
1.08974942
-1.596918928
-0.648578243
-1.213308019
-0.757717053
-0.496550671
1.178907937
-0.137637917
2.763890427
-1.667332155
-2.075472184
-2.169742454
-0.235547624
0.166593512
-1.519177695
-0.523298031
2.434238253
0.235431955
-0.364433196
-0.294595125
1.012673213
0.1321281
0.477865728
-0.234379126
-1.934223677
0.21885316
1.132871084
1.845362395
-0.121804452
1.231692748
2.823937237
1.395024165
0.862020155
0.608500808
-1.556898505
-1.082798464
-2.233881585
-1.945872974
0.1078081
1.337528243
0.710698841
0.281488074
-1.294841977
2.228554392
0.407927329
-0.109970756
-0.952786756
-1.199887106
-0.453301831
-1.581336643
-0.395928515
1.722123298
-0.860904373
0.215383838
2.320433255
-0.594228093
0.224615852
0.624253558
0.1181351
0.309505926
-1.472417867
1.214357055
0.361546454
-0.358417653
0.671915401
-1.579628856
-0.805502787
0.930398015
0.079464689
0.555703171
-1.117268728
-0.96397138
-1.243846306
-1.569933719
-1.740506862
-1.496865596
-0.014303142
0.383719848
0.280259839
0.530480065
-0.556168257
2.504245575
-0.865045749
0.627504142
0.593437169
-1.795235616
0.697904172
-1.609932139
0.604980223
-0.908846318
0.45761765
-0.494645091
-0.465137336
0.1388624
1.432319875
-0.143275734
0.784902643
1.424332288
0.935219073
0.45969939
-0.526706469
1.386139361
0.434948873
-0.837359974
1.041533915
-0.828158822
-0.476349015
-0.280672789
-0.106581904
1.778166371
0.596270398
-1.178015703
0.624194178
-0.603996965
-0.459366425
0.911181001
-1.583045691
-0.130482889
0.657961387
-0.177254221
-0.584799498
-0.430266395
-0.434926613
-1.334346272
0.671885567
1.224693123
0.544994004
0.782907091
-0.63440013
-2.571377678
-0.545404708
0.936174832
2.012382903
-0.08210147
0.047783929
0.3790858
-1.253345513
0.229132984
-0.59195327
0.80739645
0.305742066
-1.386913002
0.621266044
0.733696402
0.398983636
0.381545921
0.876304123
-1.270079284
0.643913585
0.04655013
-0.083706329
-1.004236155
0.822636648
-1.06978896
-0.145782891
-1.894412367
-0.85593204
0.499845214
-0.397747636
-0.588216261
-0.254503638
1.061657681
-1.691086675
-0.979276012
0.694568724
0.165098971
-0.077821142
-0.341224931
0.481771355
-1.177690566
0.591838502
-0.249165309
1.094893686
-0.790044601
0.463750775
0.662433323
-0.99397183
1.104602715
0.314121954
-0.528800055
-1.42157132
0.228267288
-0.401721476
1.468633755
0.221419795
1.639248673
-1.123973523
-0.684722223
-0.567824952
0.273887103
0.388978769
-1.314969485
0.316758537
-1.408187126
1.055506568
0.59056757
-0.061999353
-0.147243647
-0.107852066
-0.460033015
0.943455372
-0.185352047
1.002584236
-1.364364063
0.645521825
0.553087432
-1.11969801
1.122059813
0.958522105
-0.28711469
0.722342992
-0.526622917
1.113829574
0.204211274
1.533165895
-0.391064416
0.540213948
1.062084044
1.060876288
-0.372614627
1.047605454
0.107539371
-0.349240106
-0.522126976
1.412296927
0.698606233
0.314364634
-1.309327616
-0.632414628
0.546800429
-0.1875525
-0.668412303
-0.90877573
-1.567195167
0.374886585
0.34487043
-0.135653928
-0.258404571
0.200093087
1.803703627
-0.211756451
-0.534620228
-1.522225435
-0.096970504
1.429022596
0.622139157
-0.398792012
-0.818586974
0.621345808
-0.083292147
-0.729132022
0.154924265
0.357864232
2.389221291
1.153203973
0.043033312
0.149716089
0.504427376
0.437165492
-1.172757844
-1.670559613
0.085279117
-1.014550221
1.523335155
-0.162760133
0.550218166
1.126706099
1.987494519
0.185521926
-1.417765045
-0.792299562
1.269041543
-3.208296009
2.267373028
0.300286158
-0.652523236
-0.563198842
0.032122692
-1.144501145
1.1918799
-0.60193141
-0.64412582
-0.781084644
-1.054127033
-0.31396658
0.629652317
0.463942321
1.352291363
-1.439752527
-0.537285109
-1.039963265
0.242729894
0.076093795
0.033331447
0.616438226
-0.996426416
-2.264363431
-0.973122296
-2.194627879
0.696760358
1.106170828
0.856716495
1.685418371
-0.46952346
0.013704242
-0.757735727
0.429880034
1.188579911
-0.321721075
0.976208651
-0.370775299
0.45846523
0.933226142
-1.466037828
0.280706746
-1.082015809
1.544274972
-0.377610376
1.60853383
-1.234214425
0.680341601
0.571796519
0.072467753
0.055786911
-0.132869682
0.987001062
1.378571815
-0.016436237
0.017178859
-2.743932089
-0.16915275
1.269782657
-1.035930177
-1.905139685
-0.118293472
1.225439937
1.317229961
-0.765574956
0.446386941
0.168654378
0.753108225
0.425135722
-0.463960587
0.247299515
1.820820765
0.174174514
-1.219812386
-0.105750829
-0.644655859
-0.491555265
0.76250545
-2.889213589
-0.221014877
0.732213516
0.886996395
-0.326282685
1.684816015
1.359413933
1.820532306
-0.175772842
0.927339845
-1.990693976
-0.257080161
2.006653006
-0.32873177
1.119171502
0.969896655
0.716357172
-0.17849034
-0.013029374
0.261076718
-0.576864624
0.420871686
0.231127429
-0.849362469
1.422096126
0.082802344
0.12079862
0.530746195
-1.739633694
0.641713848
0.12504948
-0.580200307
2.758107874
0.170943076
0.040155761
1.235739113
0.590194697
0.34361121
-0.73750265
0.137601973
0.694990923
-0.008729175
1.622856819
-1.311354019
-1.327038263
-0.169360605
-0.14934794
0.316114918
-0.868049678
-0.259809262
-0.401022
0.841138153
1.523235314
-0.939135093
-0.565225772
0.38264383
0.734675947
1.814600022
0.576000429
2.227105711
-0.556114861
-0.930121711
0.052356363
0.461138372
0.758321022
1.692074091
-0.274763227
-0.988897847
0.057502612
-0.08430984
-1.125330006
-0.223762354
0.403451834
-1.414258795
-1.191215873
0.848903131
1.208213042
-1.708180833
2.04587459
-0.461740738
-0.833191776
0.427668087
-1.148917766
1.109740789
0.429209539
-1.101966437
1.444425964
-1.39699682
0.194910798
1.227268823
0.259162909
-0.587074198
-0.460933345
-1.627450589
0.315637092
1.09292719
0.6524361
-1.444442858
-0.433881049
-0.621079461
0.257099797
0.09652246
-1.915777367
0.465577881
-2.219459054
0.382828316
-0.942501267
0.988627811
0.974578502
-0.137299157
1.882312013
-0.238759445
0.739645353
0.243031647
-0.849633276
-0.632734122
-0.615373892
-0.119359327
0.380642815
0.648348722
-2.184806307
-2.969914702
-2.10594763
0.401313545
1.617702009
-0.868984299
0.684326129
-0.596300811
1.836839247
1.585891895
-1.075838141
-1.170172582
-0.13062094
-0.083790321
-0.566048293
0.587701755
-0.145434624
-0.035558425
-0.899865235
-1.088951841
0.810536372
1.740652153
-0.519348795
-0.35037753
1.224820803
-0.650133587
-0.488318323
-0.15818749
0.253150473
-0.856499482
-0.424804011
-0.184324391
-2.334201707
1.005326394
-1.306488689
-0.232789601
0.089092572
0.705675987
-2.470532015
0.282638069
-0.380480315
0.160197771
0.494511451
-0.396774111
-0.973757551
2.187148218
-1.653253187
-0.802271749
0.12939389
-0.993895105
0.396532356
-1.284838637
0.030002235
0.776645969
0.552840363
-0.106839946
1.417542291
-0.184944578
-1.843729581
0.450305971
0.757075323
-0.369650652
-1.712570634
-0.734283241
1.622647184
0.449909891
-1.125566531
0.915349059
0.07449912
1.675614863
-0.281547391
-1.81566558
-1.003449531
0.753061607
0.133180252
0.155875867
0.054101401
0.678015392
-1.099493382
-1.111357571
-0.247732235
-0.432536432
-1.136088351
0.882246205
-0.704406772
-0.957225913
-0.413255402
0.862101439
1.21567391
-0.205675666
0.211530429
0.750624848
0.584558525
0.313301916
0.983071312
0.509130681
-1.660385685
-0.058054075
0.901150488
1.156512196
0.233917277
-0.635833208
-1.136410581
-1.178523273
-0.509596801
-1.20701414
-1.781225011
0.50778053
-1.625253556
-0.401517477
-1.198056064
1.657677711
0.568865332
1.520255304
-0.877333044
-1.008369298
0.484125356
-1.095463064
1.038069032
0.821318175
0.947260974
-0.223688447
0.060681568
-0.586577595
-1.336957772
-0.255195061
-1.638505056
-0.65893001
-1.148678953
-1.010737355
-0.128559187
-1.030262084
-0.36570852
-0.487345353
-0.172995389
1.29393625
0.909958564
-0.24175466
-0.408773521
-2.053345703
0.815734818
-0.122274642
-0.121683484
0.401610647
0.637493128
-0.096462266
0.758869944
0.364980242
-0.102740272
0.136117608
0.751628268
1.014964613
-0.648549983
-1.440982201
0.195467571
2.12270071
0.808907087
-1.126900143
-0.372101208
-1.705261266
1.522050737
-0.295616307
2.652358443
0.407161236
1.431238436
-0.237858028
-1.510288065
0.548254091
-0.285451687
-1.27312549
0.516988951
0.926777589
0.545822124
0.643992113
-1.356712547
0.916559646
-0.860805627
-1.191517218
0.620600723
0.272269331
-1.909164883
-1.187090392
-0.170520005
1.216755205
0.035887442
0.965204291
0.067072681
-1.284798096
1.086496582
0.771711546
0.951583923
-1.42654005
0.797518706
-0.276858546
0.578266167
-1.503449097
-1.844722733
0.591310763
-0.818401172
0.223082423
0.904570982
0.468576644
-0.132537627
0.538573367
-1.953696839
-0.035872548
0.795996253
-0.689747808
2.509004345
0.47343902
1.926741638
0.203350121
-1.396284242
-0.315354845
-0.240397429
-0.083445492
-0.002696718
-0.55836399
-0.189410341
-0.432359226
-1.091903085
-0.20540849
-0.31462047
1.042518166
0.816881956
-0.147665492
-1.131520872
-0.309387383
-1.20977993
0.585992587
1.273008159
-0.309070216
-1.858998785
1.466355515
0.978970028
2.03054856
-0.441283997
-0.470429865
1.32238663
-0.287730929
1.405677464
0.275929845
-1.235251492
-0.486771768
0.432429562
1.511850897
1.511787601
0.003408777
-1.116797093
-0.018747195
1.220326438
-0.34528422
-1.303706602
-0.04414837
-0.370732547
0.429490272
-0.446941174
-0.766650252
0.902001815
1.290640128
0.964715082
0.458528839
0.600746023
0.367660354
-0.826789061
0.072604264
1.639689753
1.979535348
0.280069396
-0.619410794
1.349969718
-0.236508075
-1.011767727
1.679935094
-1.172664907
0.633772281
0.849025054
-1.743063112
0.63105627
0.851098846
-0.971245301
0.783564454
0.397946985
0.62074805
1.357336328
-0.851289594
-0.303243674
0.760260992
0.42480438
0.412576851
0.643217188
0.247507631
-0.322603582
0.244430777
-0.946595943
-1.385172305
0.769926853
0.022999485
1.000030939
0.562240514
-0.352838228
1.576633023
0.344034861
0.371706811
-2.06298745
0.910673375
0.95357392
-0.307132867
0.093811281
-1.31994023
0.277748154
0.296915541
-0.396438919
-0.321838245
0.197494745
-0.431176049
0.619761523
-1.270139549
1.262279068
0.687566354
-1.76567493
0.129493166
1.490996197
0.424537516
1.789261078
1.473643906
-0.595802937
0.404724845
0.319352224
0.837030465
-0.546438631
0.129840115
1.320327792
0.026930815
0.97065874
-1.133805098
1.578511879
1.070906569
-0.500738456
2.246160079
0.645386818
0.446816475
-1.361418346
0.678846228
1.052734625
0.369714914
-0.630631635
-0.274204567
0.545497982
-0.312650152
-0.55962648
0.85038086
-0.56071848
-0.416479511
-1.685290437
0.901950711
1.264479372
1.581733669
0.791656911
0.518569067
-0.349995279
-2.14476181
0.387746633
-1.012594053
-0.25327939
-0.742119061
0.942681919
-0.243783849
0.325693059
1.206188871
0.554150438
-0.090570564
-1.94834249
-0.339187711
-0.925984569
-0.251802682
-2.311717791
-0.924645869
0.315247483
-0.278239177
1.518473445
-0.985401444
-0.26755332
-0.639448271
0.915577692
2.835705331
-0.233092571
-0.280533441
0.877764617
-2.18469962
2.297512784
-0.981790374
1.629714621
-1.593610565
0.127637983
-0.102496628
0.383354075
-2.1420708
-0.617277663
-1.294434387
-1.298357751
0.191478714
0.745003264
0.660029574
-0.859993768
1.643071418
-1.662319112
-0.839445426
-1.403877957
-0.439206039
-0.824603331
0.872120044
0.922081607
1.216318974
-0.514291401
1.354947267
-0.587329833
0.103124699
-0.475016829
-0.116683528
-1.133859916
-0.421217377
1.385368202
-0.745073048
0.530679921
1.730258595
-0.857481685
-0.655893179
-0.733578657
0.315732666
0.931804273
0.2352471
0.074284431
-0.287758181
-0.240732234
-0.02713774
-0.448588898
0.546382335
-0.198295576
-0.002673404
-1.376183026
-0.672493007
0.377221942
-0.106532019
0.081608061
1.091749622
-1.18341905
-0.015393471
0.885951122
-0.619418277
-0.651371792
1.596596394
-0.1638875
-0.885008442
-1.454158426
2.770540173
0.125365658
0.004006249
0.138701195
0.77438635
-0.702085355
-0.613431578
0.784027193
0.729277449
-1.122545072
0.295966072
0.713948819
-0.02634083
-0.065729088
-0.259641014
-1.149756743
-0.18814591
-0.139945816
-0.596139553
1.328870604
-0.891439985
0.187572002
1.068567137
1.366568387
-0.559024143
-1.241959488
-0.811563524
-1.162089638
-0.676212369
-1.063297489
1.193169761
2.336818271
-0.409879346
-0.645478423
1.128229353
-0.069660847
0.436476025
0.611871082
0.593971863
-1.640404228
-0.642640866
-0.558850767
1.136827631
0.197368861
-0.20915319
0.105153721
-0.912360126
0.189537774
0.393989895
0.225556353
0.083941209
0.328250586
-0.378191364
2.243759316
-1.039354998
-0.847014044
0.005345913
1.849035364
0.185000688
-0.785067552
0.760928683
-0.005502695
-0.461003028
0.761225062
1.229322961
-0.569126009
-0.924099399
-1.133636383
-0.375974907
-2.276007592
1.59098612
-1.321810804
0.969523769
-0.991446262
1.210521577
1.155098032
0.317502925
1.849169275
0.006868656
-0.225617176
-0.237098261
0.332128112
0.684085072
-0.148558115
0.218789748
1.087413103
0.426377863
0.223082878
-0.078154712
-1.070135474
1.715435666
0.496857458
0.782226469
0.203708486
0.256682142
1.061959241
-0.291739142
-0.043615997
-0.175173742
-1.238974481
0.984388691
0.007493249
-1.459860349
-0.146075943
0.299318476
-0.492955867
-0.405929494
0.197092033
0.48024318
-0.538706077
0.017826754
-0.337271681
-1.922482856
-1.93406346
0.369725588
-0.581335748
1.514834357
-0.229590394
-0.342182621
-0.326828997
0.39520274
-0.265512085
-1.725759765
0.007434933
-1.486732913
0.596579775
0.796284645
-0.067560386
2.154435325
-0.275998433
0.175676487
0.21982598
-3.010758078
-0.777815154
0.41950111
-0.10841623
-1.601555165
-0.522986634
-0.569313063
-1.839468898
0.035083713
2.205614288
-0.223272566
-0.816603752
-1.616063704
-0.085908112
0.175440277
1.600600753
0.323079228
-1.146208407
-0.048183801
0.491545392
-0.610050098
0.997367881
0.803294755
-0.341864354
-0.323536045
-0.50681362
-0.170654061
-1.146712458
-1.12623346
0.655385527
-0.199165614
-2.812398685
1.164555095
-0.29759502
-0.675877393
-0.679278369
0.457183294
0.731220803
0.351725207
0.06229721
1.518844309
0.704346219
0.32960995
-0.315977407
-1.293897724
-1.007166173
-0.189923226
-0.000884277
0.863096291
-0.408840095
-1.165496794
0.296964155
-0.969892123
0.246055348
1.02267543
-0.478859678
-0.315961175
0.175201202
-0.067420519
0.368461891
-0.927563878
1.317328456
0.018563339
0.289860607
-0.101292081
0.47024615
2.403153172
-1.222662537
0.50399032
0.309736958
0.482634462
-1.426659287
0.035561617
1.201036381
-0.506596581
1.146848349
-1.3443751
0.143093748
0.817777141
-0.16637218
-0.386190233
1.635029046
-0.152141097
0.317138485
-0.587464514
-0.731540205
-0.745433672
0.180526148
-0.37347047
-1.01568771
-0.546232705
0.618280272
-0.146597516
-0.704114663
-0.391330844
-0.432022581
0.616874825
-0.830473929
-0.369886436
-0.368475369
-0.153662436
-0.081859106
0.25118923
-0.351697296
1.027429895
-0.464891957
0.409435223
0.253424399
-1.070383496
0.513899032
-0.644383436
-1.326213351
0.346111782
-1.554033446
-1.968877658
-1.343018198
-1.495136906
0.133919593
-1.107043071
0.508679694
1.124737624
-0.566067703
1.812773737
-0.151679107
-0.269748309
0.958645757
-0.402061271
-0.283921363
0.918794908
1.129879511
-1.074490897
0.505359975
-0.964703963
0.256783295
2.543931632
-1.390922041
0.336801453
1.350585455
-0.215949884
0.113857264
-0.55906929
0.474346891
1.42350449
-1.065458256
1.372643486
0.104659114
-0.197853624
0.208113675
-0.877070798
1.775335824
0.33525737
0.507234226
-1.097890019
0.408631763
0.994564682
2.179913387
-0.624620249
-0.068012045
-1.368298481
0.305302305
0.449975975
0.975588808
1.762694096
-0.452458495
0.826152908
0.318243019
0.356840557
0.866900903
0.574173098
-1.308483929
-1.3412424
-0.471916187
-0.48958223
-0.313503572
0.033428018
0.188872804
-0.233256252
-0.770111897
-1.048784859
1.110886064
-0.348439481
0.472254405
-1.168734652
0.786248244
-0.825545787
-0.637873219
-0.306840295
-1.352307923
1.659886963
-1.154472441
0.544115281
-0.078027529
-0.468596204
-0.132286437
-0.739409043
0.277644519
0.039133926
-0.136336377
0.659381782
1.163005473
-0.066768952
0.946997149
1.268813202
2.249752047
1.047842215
0.603802519
-1.745333982
-1.24303154
-0.464049237
0.462687709
0.618874248
-0.015404275
0.970991752
0.695130864
-0.955674024
-0.134119176
0.416990767
-0.159027444
-0.490096793
2.037142939
-0.682428131
1.159272071
1.278635863
1.449918812
0.230486855
1.727494711
-1.001946078
0.778116347
1.197089768
0.564224113
-1.562105953
-0.015231763
-1.516184364
-0.443955651
1.683665054
0.563578625
0.425602172
0.334926789
-0.793787455
0.178230674
-0.517848549
0.500323427
-0.159912607
1.927291083
0.146169406
0.021349658
-0.148322798
1.325753818
0.296605954
-0.168850472
-0.173149028
-1.541322227
-0.673293218
0.297055583
0.57600209
-0.23961789
0.504129873
-0.256716772
-0.573814285
-1.803044523
0.955669951
0.484160337
0.446683829
-0.854249029
-1.431630413
0.288633148
-0.61376764
-0.565134262
0.38616566
-0.453204899
1.039013284
0.01001339
0.817816994
1.081632223
0.513741721
-1.651315132
-0.215990997
-0.151620346
0.917557536
2.373576831
-0.782255536
0.387712634
0.807850862
3.738609732
0.504238338
-0.15140122
1.582846388
0.782296648
0.350381213
-2.457383354
0.128525037
-0.533262146
0.925246961
-1.774065477
-0.53013629
-0.283144142
-1.579671393
-0.651556741
0.383224267
1.541611389
-1.154882502
0.052890221
0.104425564
-0.933404613
-1.778489903
-0.835331402
0.125721567
0.125307253
-0.021501389
-0.460703491
-1.538982672
-0.811612948
0.256472405
0.249240463
-1.370550773
0.375115786
0.700988249
-0.171336074
0.313706398
-0.334897167
0.307198784
-0.556161426
1.888722324
1.334108013
1.231363018
1.938948286
0.083556677
0.231636809
0.663891843
0.279479823
0.07490216
0.176278654
0.196485403
-1.230529445
-0.507486654
0.70910248
-1.669704963
1.597316712
0.172018774
1.61088817
1.133606552
-0.175918394
-1.476471305
-0.116893839
-1.467282533
1.015453983
0.171531462
-0.054658596
-0.200445097
0.612043258
0.964281263
-1.368911929
2.068401295
-0.372293721
-0.120412744
-0.091296881
0.654715313
-1.590939367
-0.102891923
-0.732176013
0.61945351
-0.442335848
-0.135023798
0.194072939
0.268380851
-0.941360029
0.381012837
0.848228417
-0.300540768
1.384931065
-0.402533825
-0.162863428
2.009065521
-0.292207512
0.054559316
-1.132594181
2.26962938
0.170080828
-0.065554645
-0.912061665
-0.538625896
-0.879911505
-0.439916891
-1.451275903
-0.990553237
-0.577018706
0.282296391
-0.649629343
-0.243703125
-0.197613029
-0.343606971
1.533307655
-0.67921485
1.662657128
-0.101255275
0.593901364
-0.6349742
0.090787153
0.054419787
-0.783899001
1.099886022
0.23771119
1.020007873
0.45575164
0.022754265
-0.329402133
-0.802651207
-2.091664245
-0.518029341
1.682867896
0.740836691
0.493472008
0.167296029
-0.695321986
-0.206771654
1.359854959
-1.785993263
-0.203453581
-0.878503403
1.290959019
1.269722901
0.245339871
0.351846105
0.154661507
0.393198237
0.498204518
0.505053899
0.155437386
1.157584927
-1.341790051
1.777700496
-0.517895251
-0.565505529
0.100969012
1.285346553
-0.270140797
-1.468973882
1.785586655
-0.202971917
1.37382148
1.534155547
-1.926044077
-0.215723106
-0.176219601
0.95777897
0.321773447
1.378270853
-1.539096101
-1.779667697
-0.046681532
0.675546343
0.870401215
-0.816238911
-0.592553003
1.062702309
0.050311512
0.545416121
0.026213077
0.680560884
1.278109936
0.364011007
-0.321966077
1.721231406
-0.852041563
0.635153306
-1.024500016
-0.194110075
-1.982246125
0.181124287
1.243515815
1.043686405
-2.501740702
1.942933564
-1.83513593
1.07231257
0.898391803
-1.059665131
1.028507343
0.214213688
-1.329160326
-0.801765258
-1.009899947
0.604949196
-1.13563778
-0.607888796
-0.032521792
0.661838985
-1.131223136
-0.270807638
1.216594163
0.410964485
-0.480743156
-1.289038925
0.322885333
1.333013137
-0.410470154
1.060013073
0.405410369
-1.066864711
-0.02153828
2.871212295
1.048173631
-0.16645421
-0.402837913
0.207742195
-0.748466624
0.165052199
-1.140952944
-0.253754474
-0.27832683
0.596169758
0.566611228
-0.628881862
0.474763558
1.086108268
-0.663332187
0.362309243
-2.378615719
-1.273473608
0.364537601
-1.602942602
-1.543764717
0.435505144
-0.006145978
1.152682045
-0.482061473
-0.209144113
-1.293657108
2.309341437
1.464142329
0.608687316
-1.213725989
-0.650769184
0.383712628
0.571745116
1.080370698
-0.612499824
-0.110562515
-0.3106489
-1.308945686
-1.51542782
-0.709082883
0.115532359
-1.059556897
-1.021892222
-0.685367335
0.191187234
-0.186988384
0.216582399
0.013689669
-0.900973163
0.829664894
-1.603321001
0.282508388
1.728168385
-1.199944834
-0.450798669
-0.889626432
-0.208486216
-0.584708316
0.118368126
-0.273423705
-2.195373623
0.058264586
0.588657183
-0.263269031
1.181909721
-0.738745028
0.934226654
-0.540258269
0.479186109
0.748846963
0.259799244
-0.044119524
-0.365364038
-0.835649568
0.374056777
-0.522380879
1.065250008
-1.005919445
-0.188117999
-0.495287697
0.216282015
2.133914611
-0.693331192
-0.834305452
-0.583111154
-0.927986658
-0.893912613
-1.748339945
0.30846111
-0.230718236
-1.396704051
-0.574690203
1.207272922
0.936122004
-1.9238915
0.518433099
0.67548117
-0.727357702
0.031069442
0.576026932
-0.043868641
-0.445164587
-1.366750365
-0.230489154
1.258332119
-0.939462618
-1.826920428
1.402302127
-0.574411329
-0.61404813
-1.944833018
-0.301282611
-1.444433446
-0.192072236
0.907008363
0.151129924
-2.468286167
-0.541077433
1.259972973
2.158012807
-0.083723848
0.030579107
-1.455751501
0.05937942
1.39162272
1.410803148
-0.472334684
0.886097539
-0.471199298
-0.024807263
-1.518036851
-0.716253965
-1.320907401
1.929218889
-1.377005691
-0.010576881
-0.896280824
0.503448004
0.064700658
1.37152518
-1.772685543
-1.16413006
-0.141484137
0.522586673
-0.202272543
1.674908668
-0.615484628
0.558489478
0.931751845
-0.627544937
0.218392175
-0.4434053
-1.055218344
-0.584647894
0.302063827
-2.606879805
1.05720831
-0.975773534
1.19595648
0.725865767
0.033420708
0.955661871
0.240509298
-0.836351208
-1.095593775
1.127755486
-0.583017554
0.800885251
0.341219684
-0.139708592
1.11475135
0.57648776
-1.651280578
0.583272717
0.709554398
-0.116881768
-0.279154067
0.719250164
-0.640534811
2.433936618
-0.356069242
1.585765213
-0.597007299
0.965000849
-0.881190532
2.488041005
-0.48264492
-0.265627602
1.495247698
-1.782508468
0.187023553
0.165343236
-0.54314682
-1.736188996
1.742893414
0.471874437
0.350090253
-0.721610538
0.597261617
1.013915455
0.656415528
0.139281742
-0.378131353
1.563452092
0.322772969
0.293236101
-0.839527974
-0.23887466
-0.864821865
1.681185175
-0.199605187
-0.921624907
-1.226859702
0.983580865
1.6698943
-1.963811022
-0.414163704
0.076855807
-0.941911445
-0.08672307
-0.14005919
-0.221677003
1.096589488
0.10719707
0.461434207
0.966773997
-1.213692395
-1.154418479
1.429908972
0.924864352
-1.419276549
-1.38534628
-0.357868658
0.172324718
0.683628001
-1.846536819
0.532886272
0.381641309
-0.623668835
0.476732188
2.326037901
-0.392739261
0.320777282
1.576243428
-0.823292531
0.584556971
2.147003048
0.668816043
2.120783815
-0.120741706
-0.708015381
-1.201290819
0.654059495
0.297104466
-0.610123675
-0.47975299
1.80915726
-1.509002581
-0.133390021
0.388283297
0.659334854
-1.573108835
0.729851944
-0.446913663
0.384899407
-1.237375246
-0.278342845
-0.363707938
-0.587530795
1.840913503
-0.571809433
-1.080098298
1.77255018
-0.656881484
-0.041303732
-0.619839689
0.974330675
-0.169461263
-1.192071528
-1.426062981
0.323229701
0.358326661
0.588742161
-1.093898973
1.297608957
0.878218832
-1.29728398
0.226384871
-1.0507264
1.085567751
-0.820520843
0.362123181
-0.03084361
-0.656080623
-0.360996523
-0.609284296
-0.338446555
0.601534716
0.743698081
2.03322418
0.709480621
-0.473740996
1.040903766
0.544434907
1.091970058
-1.330288807
-1.317900364
0.611729067
-2.059104424
0.651561975
0.417051406
-0.217604144
-1.608045457
1.621980252
0.736326909
-0.304633149
1.326813442
0.635859703
-0.322756914
-1.536970552
-1.612165293
0.5233957
0.372046608
0.866263397
-0.380140579
0.668520103
0.484806893
-0.352059563
0.485150646
1.049165427
0.585830092
0.994532941
-1.275658147
1.363386466
1.007829956
-0.528070714
-1.91876584
-0.810101106
-0.51827296
0.26057199
-2.229990112
2.423691283
1.857445384
-1.147303062
0.069950195
1.386695408
-1.764927825
-1.775901027
0.121374717
-0.157174328
-0.919700759
1.067222552
-1.418594011
0.345664357
-0.134990524
-1.387802403
-0.358969529
1.206940522
0.835466371
-1.204180393
0.027795484
-0.691490173
-0.936179052
1.352807856
0.166579999
1.080083055
-1.85115927
1.17341053
-1.302560162
-0.397958244
0.172923837
0.071824409
-0.930436405
-0.867801389
-1.191574712
0.516333194
-2.452674878
-0.494097663
-0.210993558
0.33891728
0.080255422
-2.299089118
1.281504561
1.524566014
0.048838329
-2.178802366
0.588586077
-0.940981465
0.855967671
-0.240521476
0.043478618
0.038472797
-0.503261468
-0.436721144
1.290303647
-2.711855769
-0.460196129
-2.500671001
1.347241497
0.153668652
-1.38308415
-0.062313871
-0.017571367
0.993699397
1.428490199
-1.301540964
-0.315207802
1.503559509
0.548541139
2.33656492
-0.40250279
-0.756286374
-1.03387433
0.154830544
-0.71430248
0.466593199
2.833174342
-0.042446487
1.265368894
-0.206335996
-0.496474615
0.631784858
-0.116358113
0.313870704
0.180989451
-2.492416646
-1.135372582
0.930735849
-1.417552489
-0.48163136
-1.922148466
1.191131373
2.040369283
0.513185567
-2.430284065
1.511867985
-2.669945752
-0.900698278
-0.087720209
0.623630131
-0.450905496
-0.730110121
-0.071894078
-0.992933862
-0.431965803
-1.012036005
-0.187901888
-1.856474931
1.278948029
0.377354717
0.605144129
0.646544142
-0.282429584
0.396592915
0.741694856
0.392968704
-1.788577793
0.511961546
-2.326441231
-1.01392542
-0.096829207
-1.193931443
-0.519236838
0.548587909
-1.043252162
-0.115269879
-0.273623121
0.407478014
-0.901756309
-0.744787664
-0.167873157
1.162007027
-0.001584364
-2.118246846
1.750228509
-0.078008097
0.209868264
0.03894934
0.325846962
1.564340792
1.677910399
-0.909156988
0.015098426
-0.12932504
-1.928064148
-2.121469003
-0.575043173
-0.384576495
-1.132548985
-0.628967356
0.307219359
-0.534282381
-0.585432838
-1.582923204
0.93033322
1.524705526
1.968170258
0.88034464
-1.071555479
1.637011699
-1.20256175
-0.091784215
0.425219539
-0.057572849
-0.865715124
0.663039121
0.208200016
0.587958762
-2.349914652
0.960845145
-1.006293361
1.223802555
0.373191913
-0.614337762
1.723264526
-0.957714861
-0.619978438
0.377693007
-0.364569645
-1.081689842
0.373030787
1.565885879
-0.572151149
-0.491573914
-0.145904772
2.907251322
1.88238507
-1.630055872
-2.307100153
0.031787877
0.384414146
-0.224974173
-0.461181716
0.220879613
1.071324193
-1.309234601
0.796854979
-0.418029516
0.237263445
-0.466709379
-0.032617165
0.1738441
-1.515812268
-0.997163968
0.587804556
1.146470021
-0.091855602
0.933727238
0.200483827
-0.423484137
0.031867021
-0.480118678
1.20121478
0.689411701
-2.901992341
0.394584786
0.898259166
-0.748197409
-1.045063588
2.047363355
0.174152849
0.440238263
-0.670697382
1.350723388
-1.151803561
-0.771668414
0.457066412
1.481460486
-0.283360371
1.845785195
-3.360816292
-1.096829563
-0.606573318
0.271478055
1.769675031
0.575986689
-2.069549758
0.40355595
1.323389714
-0.486767952
2.093960414
-0.026911979
-1.197245189
1.901534785
-1.119270463
0.477020486
0.240964577
-1.203208193
0.489574886
-0.257046277
0.524195987
0.380519013
-0.831840251
-0.145469289
1.547318952
1.182997314
0.379111779
0.377466604
-0.123932353
-0.010429948
0.290566939
1.635450542
-0.597011923
-1.136370206
2.14000593
-1.671126854
-0.931733339
0.272998225
-1.191539468
-0.832917245
2.371199928
0.744171177
0.23506037
-0.147821487
-0.240590428
-0.713935131
-0.858238077
-0.346183705
0.589294184
-0.244027131
0.168295862
1.534626863
0.217947757
1.531781973
0.172415688
2.190978276
0.766741301
-0.236928212
0.928774742
1.425340877
1.953048814
-0.737993974
-0.876306999
0.677662459
0.723725673
-0.372288003
-0.298029875
-0.385588607
0.047230106
-1.560493732
1.013145011
-0.214126316
1.336488053
-0.049688187
-1.809154816
0.076365078
-0.352898391
-1.079070801
-0.424977818
-1.650252753
-1.588906847
-0.600446316
-0.975996248
-2.077442734
-0.171236168
-1.566382539
-1.493757868
1.244996907
-0.710492648
0.236276763
0.886383547
-1.209391624
0.590433103
-0.022924042
3.075163848
2.230896133
-0.931361642
0.573230882
0.872662317
-0.158363383
-1.732851658
-0.469748754
0.986306255
-1.121535984
-0.258725768
0.908186685
0.701920984
-0.114761572
0.461686197
2.180514667
-1.210404037
0.798052889
0.276847699
-0.325895615
-1.137184162
-0.505185157
1.231585442
0.085651253
-2.572369092
1.036384922
-0.612205254
-1.69195038
-0.720849966
-1.351458695
-0.180689861
-0.806638233
-0.805090547
0.631002719
-1.003051576
-0.467517169
-1.084412886
0.355952811
-1.728422311
-0.202690458
0.273849949
-0.750175716
-0.635143993
-1.560153216
-0.246892265
2.96908275
0.336812843
-1.521473717
-0.892035641
-0.818097575
0.548812413
-1.758748628
-1.011325491
-0.283360534
-0.77197087
0.209276144
-1.376409776
0.280163682
1.577193807
0.704083777
-0.581536075
1.061162176
-0.500236213
-0.449855654
-0.523784648
0.382295917
2.210010683
0.151455343
-1.161398704
-0.364295671
-2.214492097
0.768022533
-0.751465407
-0.980617766
0.204705737
0.485744854
0.951260508
-0.500615082
-0.436669281
-1.462678711
0.39347794
0.575741637
-0.733518213
0.040513625
0.756498919
-0.453961634
-1.031427447
-1.047308873
0.85813338
-0.338114477
-0.841163522
-0.177593142
-2.262043863
0.739659346
0.150006344
1.177385354
0.408590329
-2.460663199
0.722985228
-0.396681001
-0.462036403
-1.029773687
0.660572186
1.439004676
-1.428598624
0.802807284
0.906644968
0.504868556
1.13249849
-0.482963637
0.753046531
-1.091823777
-0.389880885
-0.381300518
-0.615626848
-0.09615113
-0.195270452
-0.469862502
1.187025822
0.147903575
-0.818220603
-0.720412403
-0.04569995
-0.253401402
0.339048616
1.673437698
-0.571808127
0.124088056
1.231197493
1.769239753
0.304110597
0.720732183
0.568413674
-0.120857398
-1.353352986
-0.420052642
0.930981415
0.142578006
-2.18958465
0.926541338
0.733548877
0.720764007
-0.752962487
-0.518549872
0.086572762
1.390502369
-0.80428887
-0.258133171
-0.739772462
0.245108369
-0.16716896
-1.014470962
0.100852029
0.301238672
0.003659512
0.763907426
0.481614344
1.21849083
0.214673168
0.937834161
1.424334747
-0.250178284
1.140335024
-0.854992032
1.354362629
-0.678205762
1.194624383
-0.686294082
2.239892897
-0.669951089
0.934502053
0.059948945
-0.044823972
0.122015815
0.694307175
-1.241570224
-0.368531483
-0.717096085
0.124139134
0.138077152
-0.151007152
-0.859558319
-0.689113036
0.977590497
1.426656442
0.507754131
-1.698979313
0.074540916
0.439833261
-1.15229266
-1.200216792
0.237792529
0.399468379
1.429709743
0.264784974
0.947647843
0.486230235
0.390712552
0.738320764
-0.148416984
-0.426405375
0.519350874
1.140831322
1.07087411
1.605056613
1.160652225
0.443909804
0.777223112
-0.864838414
-1.220464422
-0.004388488
0.728345671
-0.44128175
-0.258953971
-0.095538182
1.163828023
-0.416078072
-1.295357361
0.768977267
0.277881005
-0.122226742
-1.328318683
0.703789655
-0.098661661
-0.976910692
-0.991940946
-2.412073483
-1.178900309
-0.752461275
-1.967105677
-1.121702792
-0.244120604
-1.701163741
-1.737178449
-0.401194827
0.218556171
0.178456893
0.153536658
-1.163170175
0.516113571
0.720220831
1.986762296
0.568631503
-1.775182909
-0.667038269
-0.354359472
0.836354977
0.550935572
-2.214602144
1.140654381
-1.962864364
-0.996453307
1.446846685
1.558905395
0.904369111
-0.381467064
-0.702418988
1.316076635
0.419191278
-0.911221198
-0.064458394
-0.790412217
-2.452338185
0.22684446
1.45550615
-0.128496423
-0.219324853
0.940924139
1.836263075
-1.743783647
-0.128843389
0.69782819
-1.089214302
0.932130905
-0.689401792
1.859243097
0.523787437
-0.422657587
0.977489863
-1.201100756
2.041233776
-2.590018528
1.423164054
0.804915342
-0.456446256
0.287237701
-0.456326334
-1.67694693
-1.112451461
0.795591058
0.136262857
0.34823348
0.281069762
-0.156897679
1.798285671
-0.382249115
-2.763717689
0.139672924
0.99610477
-0.159515978
1.825647971
-0.572010546
-0.216502985
-0.566799698
-1.383780075
-1.020113798
1.153123553
-0.334607044
-0.60339704
0.915846965
0.256638174
2.002942052
-1.344575792
-0.16262903
0.44731992
-0.011426139
-0.117830796
2.722175339
0.473186812
-1.09711809
0.424334755
0.562791618
-0.546742133
-1.602045715
-0.93433737
-0.363453332
1.574996796
-0.442656122
-0.203573059
0.012176421
-1.565079763
-2.111258788
-0.888472362
-0.728846495
-0.072391212
-0.927886764
0.395890873
0.071650176
0.342435639
1.297565206
-0.3574782
0.91032417
1.061196211
-2.870183934
1.771138014
-1.423852024
-0.413459698
-1.127429426
-0.886538504
-0.197144276
0.187477921
-1.397359749
-2.325948532
1.748358558
0.178713732
1.952418485
-0.344798179
-0.327494614
0.100825684
-0.131596249
-1.260825065
-1.621917769
-0.258538894
0.347857799
-0.477655858
0.676004523
-0.614740491
0.311301997
-0.139060031
0.134623803
-0.771243477
2.467305889
-0.840897231
-1.545506922
0.068051304
0.337832901
-1.607536697
-0.405636629
-1.049408895
-0.573621596
0.135277919
-1.190257853
-0.013957238
-1.011378768
0.457165596
0.289114813
1.129508274
0.40109762
-1.124386777
1.252187054
2.207433066
0.652358945
-1.464118835
0.86825253
-0.39440459
0.548293667
-0.816886718
-1.011247764
-2.697023403
0.69132082
0.85496837
0.716149105
0.013687141
-0.935508769
0.249585295
-0.02566117
1.709854709
-0.023611519
-0.419566696
-0.259545919
-1.013551867
-1.211702681
-1.980447691
1.18769038
0.49357677
-0.001963201
-2.12195534
0.348460231
-0.239221483
1.651067419
0.039007621
0.279699362
-1.044557069
-1.830313205
-1.67046183
2.441990657
-1.462155137
0.207266456
-0.818190685
-2.739235801
-1.467668197
-0.890756878
-2.160466409
0.001735253
-1.933990869
0.291807964
0.010265835
-0.578676275
2.824629366
1.643677228
0.686428767
-0.600112614
1.123226631
-0.557123724
2.506245502
0.294609639
-1.904516439
0.888317004
0.443498489
-0.102966264
0.550484997
-0.431358552
-0.746989914
-0.42864429
-1.517509415
-0.280328505
-2.833078683
-2.425730893
0.749081687
-1.138774866
-0.983783824
1.701317444
0.7802923
0.213354613
0.141945894
-1.051995044
-1.851798171
-1.157099257
0.337468003
0.211894508
-0.630539343
-0.709069078
0.40265509
1.628198939
0.521361406
-0.203129573
1.218697338
-0.216042561
0.791320569
1.345838771
-1.867793324
0.090801179
0.742823262
0.88719884
0.94526676
1.765979259
-2.304653441
-0.51106556
-0.446333131
-1.959360288
0.202223852
0.426347324
-1.259757203
0.120525638
2.657487004
-1.82184035
-0.584116264
1.660738133
-1.567591788
0.40887833
-0.142739536
-0.32004132
2.818937266
1.947939947
1.461265442
1.980243042
0.031303774
-0.829589626
0.56037004
0.971891319
2.247722385
-0.088468397
1.00580504
0.201141658
-0.213591222
-2.757238434
-1.142023274
-0.559858451
1.001286123
-0.506665203
0.026054698
0.173205799
-2.503349314
0.897019262
-0.319995179
-1.075627105
-1.129244983
-0.853093162
1.736647499
-0.477874794
-0.886403959
-0.157175256
-1.377578412
-0.782642724
-0.191473166
-1.00799012
0.374447694
-1.307286446
-0.507516945
-1.272921568
-1.625043512
-0.485656079
-0.916223938
0.1350518
-1.354031338
-0.277072192
-2.062201233
-0.134311569
0.692235232
-0.330328316
-1.794438885
2.14229333
-4.295889922
-0.577116326
1.298343716
-0.713628235
-0.511765173
0.554914184
0.883124647
-0.041717762
-1.29655036
-1.831527683
1.776363868
-0.880950348
1.041197316
0.738378586
-0.19677331
-0.312471132
-1.844957803
0.058071865
-1.365889032
-0.626098366
-2.517031134
1.074181563
-0.56202467
0.186507218
-0.694924627
-1.251254817
0.692870123
-0.976852087
0.234251166
0.531450352
-0.733342415
-0.535199342
-0.264060238
0.241597525
-0.714305893
2.413206819
0.866454667
-1.093341213
-0.642205764
-4.880243227
0.086041117
-0.474009113
1.101129631
2.074314982
0.637992057
0.083970197
-3.28480852
0.372295577
-0.623549531
-0.184327896
-1.227040078
-0.475961519
-2.032150829
0.274211371
0.83344068
1.150172617
0.057192137
-0.59826226
1.033794833
0.209420456
-0.37006308
1.455029054
-1.620772497
0.768306457
0.434472395
-0.184232568
0.763083467
-1.240791139
0.300916248
-1.809376159
-0.169044058
-1.022444702
0.498232472
1.16991359
-1.200449189
1.878281673
0.234870605
1.857584382
0.561428446
-0.348377233
-2.28155281
0.258978601
0.696604801
1.393855413
-0.472952321
0.545640476
1.073765348
0.100445694
-0.141063777
0.88645492
-0.659527171
-0.292132622
-0.344020708
1.61122465
1.032597603
-0.413748684
0.305783823
-1.444608377
-1.585185755
-0.96118906
2.87608464
-2.642694855
2.257001658
0.335054937
1.459267893
-0.899212066
1.093999107
1.04806255
0.085776335
-2.660508843
-1.822382087
1.62244922
-0.245202
-1.79242663
0.271926037
-0.889470096
-0.176673834
-0.641365031
-1.772056321
1.193378328
-0.896286998
0.347899409
0.748483156
0.842770735
1.28583552
1.316696026
1.34361237
-3.086073053
-0.848152733
0.39751841
-0.176106751
-1.399031694
1.137105703
2.025826395
-0.228831271
0.196062863
1.630609169
-1.247888613
-0.165438727
-1.560778327
-1.496628123
0.67653806
0.020450637
1.078014931
0.375091798
-0.190574644
0.625233897
-0.611152385
-1.957874096
1.356874052
1.422464603
-2.801094719
-1.025428811
-0.889891408
1.0010675
0.04109301
-1.056134942
-0.663311289
0.820249965
-0.165844003
0.305461016
-1.223073959
0.083302623
0.782173983
-0.444851876
1.27907047
-0.396603323
1.144158216
1.131535355
-0.295784924
-2.405920536
0.354599716
0.508391778
-1.699650433
0.617803367
-1.629309633
2.008315244
-1.123392058
0.026978449
-0.090531325
0.37197664
-0.761252179
0.175436715
0.318807127
-0.74474622
-0.120779696
-1.532910536
-0.046924505
-0.518901201
-0.073190698
-0.522533708
-0.445735015
-0.429885073
1.360997688
-0.302726979
-0.000461319
0.294960753
-0.194684853
0.909048241
-0.54465732
-0.762501421
1.578917277
1.270979726
-0.546245482
-0.427843842
-0.487270489
0.478626489
0.19317972
-1.275751176
0.347551714
1.374321727
0.307480242
-0.538168911
0.303266422
1.324861034
-0.336172474
-0.999072217
-1.338710019
1.312013748
-0.889966782
-0.837936563
-0.10256547
-0.541024488
0.373411393
-0.862622999
-0.729040085
-1.301013674
1.703665048
1.180287389
0.372681698
0.137775988
0.015796761
0.891804381
-0.191051005
1.287042063
0.080481993
0.780940199
-0.46319813
0.085503854
0.712292285
-1.919337564
-0.279731334
-0.196174117
0.645370096
0.291985657
0.678208631
-3.386632005
-0.724687135
0.061565112
-0.782922222
-0.607340472
-0.035483521
1.738888748
0.836825777
-1.749969256
0.953879371
-1.229936123
-0.129290259
0.267559488
-0.364129486
0.696026802
-1.549807715
0.060144382
-1.274236853
0.422885172
1.094302842
0.778710749
-0.686321995
0.527881963
-0.307521536
-0.875312595
-0.574500522
-0.894075735
-2.487293452
1.262340785
-0.589904841
-1.499735568
-0.373203953
-2.140554175
0.210990476
0.128192007
-2.377626676
2.042129837
0.929762298
0.854344523
-0.695937079
-1.561678605
-0.202137768
1.23882584
-0.312962744
-0.432089572
-0.78033273
-0.81925184
2.327177051
0.233334683
-0.742348625
0.439893261
0.262979588
1.021927138
0.389133419
0.539192921
-1.965516092
-0.818794858
0.275235865
1.000475788
-1.307105431
-2.941924123
-0.233747437
-0.211907979
-0.63301509
0.222854527
0.465575767
0.460295617
1.632375802
0.373857636
0.094326254
0.509237339
1.679621427
2.455071177
0.979793354
0.306118904
2.304950613
0.71999777
0.749160871
-0.958917014
-1.309862213
0.87211767
-0.06049505
0.966344073
0.972968786
1.712737603
0.606675894
-0.738673407
-0.771615392
0.03356606
0.185061314
-1.156053323
-0.094330127
-1.665785747
-0.188850491
-1.050486565
-0.223949979
1.852568906
0.974868716
0.814352042
-2.462455503
-0.230681127
-0.528314342
-0.129493932
-0.251503964
-1.0245635
-1.032513935
1.621789092
-2.34907179
0.022704629
0.450225571
0.27669915
0.461602999
1.386903227
-0.027660379
-1.428684644
-1.030600884
-0.63677332
2.087281231
-0.052655755
-0.475481014
-0.397143348
0.121609724
-0.585217629
-0.876737897
0.030050797
0.358258227
-1.146383047
0.354469644
-0.736952631
-1.385949023
1.319027033
-2.131941033
1.604426434
-0.885521787
-0.320335619
-0.408102393
0.450091346
-1.23036368
0.27445837
-0.002947358
0.025040093
0.986428651
0.325089907
-0.274255242
0.301194634
2.566040447
0.703295368
0.279605509
0.411243369
0.10013236
0.713948205
-0.307802184
0.360245937
0.428801365
1.796668095
0.972779304
0.209590443
0.416309311
1.109739418
0.018397111
-1.448215981
0.606612228
-1.338670367
0.076574016
1.033118088
-0.344340863
-0.296598541
0.277500475
1.134155674
-0.940513471
-1.530298537
0.349270204
-0.064697828
0.304874649
0.98251013
-1.873869543
1.405843225
-0.318273903
0.773285609
0.027191034
2.295778506
-0.914961881
-0.871327966
0.785164231
-0.449897757
0.377556515
-0.398481228
0.033322573
-0.655241447
0.060291731
1.094794063
0.080698615
1.042556037
-1.631956679
-1.003801444
0.28831385
-0.717048857
-0.839999784
0.09693759
-0.811969928
-0.761298026
-0.421042127
-0.564921563
0.795582996
0.957931792
-0.297069
-0.359081843
-0.845466228
0.943160406
-0.403264829
-0.017208646
0.214626066
0.835647685
-0.960568729
-1.053528484
-1.159212339
0.594023312
-0.343399141
0.655676949
-2.754310371
-2.373248607
0.43765359
-0.507276435
-2.320728608
-1.805909654
0.176552223
0.03982425
0.362285032
-0.585429056
0.349389715
1.812592944
0.027504217
-1.134043594
0.327564201
1.488379635
2.70157038
-0.466595037
-1.273340413
-0.399597832
1.731516367
-0.310286273
-0.03001995
0.561362528
-0.892288596
-1.132414936
-1.612379018
0.318474171
1.584749688
0.907447372
-0.240047093
0.943142188
-0.284661364
-0.259277656
-1.886751425
-0.721189855
-1.569564725
1.758271005
2.073718583
-0.32107583
-0.256739114
-0.527914276
-1.05938086
0.476168439
0.145613837
-0.604858397
-0.465312933
-0.773471421
-0.510947757
-0.160028152
-0.562299518
-0.76932763
-0.370376378
-0.404532228
1.255194863
-0.062095419
0.140783652
0.545222609
-0.857442642
0.609894173
0.247846355
-0.810400132
-1.304030102
1.070135085
-0.077460336
0.335753505
-0.211137794
-0.003458581
2.101854044
-0.48988324
-0.197932472
0.674913678
0.166314676
0.585470162
1.330511562
0.795481143
-0.368530336
-0.598153738
1.156252752
0.17351805
0.893069129
0.583328831
-1.157372291
-0.168738854
0.892126455
0.107901988
-0.205213068
0.726853751
0.252662118
0.829587174
2.08004344
-1.035307433
-0.138025165
-0.174355097
-0.809459894
-1.932667977
-0.188748511
1.002317607
0.809151286
-0.558896555
0.850471255
-0.47758474
0.757243838
-0.682477132
0.474301341
0.562956329
-0.469896129
0.445269172
0.899168317
0.804471299
-0.459011762
1.210831248
-0.757281905
0.291138591
1.35876006
2.163809809
-0.838730042
-0.232119415
-0.734957547
2.356731846
2.007382557
0.590072055
-1.412929723
-0.989013219
1.445841809
-0.157365723
0.140593589
0.222714434
0.92057464
0.550861897
1.78860435
3.310879955
-0.851250047
0.485070091
1.921740202
0.264574596
-0.746717683
1.103389985
0.052769579
-0.416463164
-0.370815733
0.143539922
1.11137936
0.739341488
0.365037308
0.189522602
0.470791392
0.573931844
0.220660477
0.640426938
0.378448046
0.294491594
-1.678194333
-1.376233471
1.05018106
-1.19465194
-0.664419638
1.166208999
1.352376271
-0.147726188
0.191744771
0.421249875
1.938436683
-0.346617819
2.335196408
0.263113954
-1.331928325
-0.617407354
-0.541971081
-1.394267972
-0.384716656
2.214932512
-0.021317937
1.441133591
-0.125756779
0.347998761
-0.272871372
-0.767152386
0.483638431
-0.073425216
-1.464667305
1.816405655
-0.098673046
-0.733757263
-0.398387247
0.080003668
-1.441480176
0.65426009
-0.359534724
-1.150813008
0.047203865
-0.696062397
-0.901850219
-1.18030894
0.487647713
0.086155069
-1.012488076
-0.066556081
-2.576721559
0.087489188
-0.989293629
2.391613487
-1.009359721
-1.922996209
-0.937769079
1.391541522
0.372325163
-0.075479136
0.014822514
0.163856827
0.508907414
0.327565166
2.169189292
-1.390644139
0.962616159
-0.442961361
-0.823325902
-0.698912373
-0.006054511
1.080230941
0.89988301
1.586057127
-1.203105852
-1.415157092
0.921950614
-0.880182048
1.419910841
1.343248685
-2.13803837
0.653774601
2.219024398
-0.711967487
0.583497826
-0.30352953
-2.369226563
1.558536927
1.102563649
1.546758782
1.11438268
-0.170684103
0.87137565
0.39013771
-1.633448485
-1.597732177
-1.302541639
-0.388543567
-1.056983574
-0.482974587
-0.584120424
-0.676670045
-2.4567587
0.737755521
0.02812254
-0.436406286
-0.351442942
-2.20254642
0.140200035
1.229629931
-2.033626905
0.008532561
0.787001727
0.734039835
1.069619385
0.188944851
-1.560716983
-0.891415429
2.573638307
0.708909202
-1.056443516
0.33083143
1.543957766
0.431377786
0.813162133
-2.659839942
-2.683730734
-1.969365279
-0.56938982
1.596964549
1.372522732
-1.63109285
-0.097985163
0.158266653
-2.196151748
0.105580656
1.47208838
-1.448565887
-0.412814586
1.843454135
-1.524073417
-0.608019848
2.035010103
0.685855158
-0.986427259
-0.038710091
-2.186682385
0.313891769
-0.274642445
0.442966774
1.824723807
0.549896811
1.269186617
-0.689279234
0.816000762
-0.150808569
-1.061959538
-0.234298689
-1.258957643
1.214609017
0.750440113
1.023171436
0.684781477
-0.83767127
1.771296178
-1.067036196
2.036259012
-1.344863619
0.338549672
1.010631057
-0.161383095
-0.440178483
1.523929619
1.726273243
1.084862048
-0.471210035
-1.223092753
0.529100902
0.242724601
-2.196438564
1.67210708
0.511335094
0.252879014
0.612285629
-0.295033446
-1.286520062
-1.067967916
-0.426750716
-0.658033311
0.643664617
-1.076903019
-0.457854769
1.219940913
0.081574218
0.835618008
0.720369869
1.184795848
-1.981376203
1.806974851
1.563537704
-1.022446192
-1.663452978
0.067846793
0.114127274
0.472042032
-0.604831332
-0.108243903
-0.719501398
0.440392267
-1.431186877
3.832448829
-0.634468481
0.71391557
-1.250598047
-1.365287201
-0.146308182
0.917864849
-1.492143527
-0.594776422
0.835099396
0.269205476
1.445804889
1.458348268
1.237177015
-0.33851531
-0.895162705
1.683260337
-1.796722766
1.137251394
1.141342532
-0.81927353
-1.16180915
0.946726454
-0.7511154
0.520564607
-0.520750384
-0.7723839
-0.002165148
0.788433356
-0.721730747
3.280665432
0.475117492
2.247815301
0.143067242
0.187515611
-0.560829661
-0.88004025
0.752399936
-0.556444392
-0.016032437
-1.395747673
-0.569104349
0.642432973
1.535621133
-0.207460216
-0.070604398
0.17976264
-1.211547686
1.40322454
-0.005951387
-1.593482678
-1.484731973
0.705578208
1.100005834
-2.121456557
0.168310576
-1.670205436
-1.294515745
-0.274642659
-0.145087568
0.635191013
0.432587913
0.682325497
-0.97686403
-0.612340238
0.00973349
-0.678377652
-1.562325711
0.308426642
0.186991876
0.272625547
1.682336845
1.204826407
1.514787264
-0.133779862
-2.11732557
-0.321187717
-2.101716179
-1.695665615
-0.549958918
1.337514875
-2.427994123
0.261059865
3.189720742
-3.835816315
0.043851277
-1.082170352
0.337601761
-0.245134378
0.498066588
0.014746056
0.987336469
0.921997179
-1.489291105
-1.201591665
-0.827563983
-0.188130166
1.776832991
0.402032914
0.402210822
1.18011276
0.575357576
-0.655974868
-0.358240442
-0.629267767
-0.413305006
0.780042284
-0.259870634
0.073603108
-0.616101624
0.739449834
0.029118218
-0.764059426
0.393566434
-2.028449171
-1.445443083
-2.450203803
1.283997995
0.031439077
0.870093323
-1.205891346
-0.277838155
0.76601546
-1.362993649
-0.793889783
0.033672878
1.032987686
0.068800573
-0.200242537
0.174873999
-0.376907487
1.0690417
-2.173509874
0.245778077
-0.03760024
-1.498497368
1.894633396
-2.737627441
0.127086417
-1.047665202
-0.885704788
-0.74828991
-0.53232854
0.734854549
-0.791040388
-1.474096589
-0.576533721
-0.696680249
-2.965437467
-1.220708228
-0.277446288
-1.581755861
-0.61978654
0.839880987
0.486150951
1.034862879
-1.273284914
1.311939805
0.719866128
-0.257798462
0.503215864
0.184742618
0.074213572
-2.127566194
0.436154504
0.294988981
-0.688056455
-1.210136104
-0.602702487
-0.943330717
1.093551454
0.366361405
-1.396070294
0.374364103
-0.211371105
-1.883894852
0.412824088
0.804526217
-1.11184923
-0.549095606
-0.103533438
0.909660186
0.620863064
-0.635473509
0.695289172
-1.054844373
1.502461181
-0.615445432
0.006803056
-0.807465228
2.422330591
0.790149464
-1.888506831
-0.642057925
0.804924934
0.579916739
1.592168731
-1.055057045
0.91700735
-2.350905164
0.314497173
0.233269476
2.330899247
0.300552648
0.893334923
-0.571505165
0.019561026
-1.403162212
-1.024884813
1.107828292
0.752117075
-0.905333413
0.763469057
-0.535828431
0.297520283
-0.042503304
-0.456791732
-1.562591935
1.971099469
-0.597019766
-0.656358303
2.122839006
1.388770244
-0.38177036
-1.163383697
0.796481639
1.764746845
0.620286003
1.119448082
0.811599326
-0.218515305
0.501697554
-1.298884111
0.534802089
0.381850277
0.237764236
-1.919146791
-0.568034615
-0.870710907
0.1568738
-0.843474231
-0.942073749
0.580026018
-1.072892881
0.748091368
1.794641875
0.82979889
0.386682927
-0.465197609
-0.703098778
1.114437839
-0.063710206
0.20049714
2.034151528
-2.653225354
-0.797146611
2.10037037
-1.256735524
-0.37252454
-1.191951915
-0.208490421
-0.127255885
0.12282781
-1.881904557
2.482835993
-1.009350259
-0.464938823
0.105710419
-0.819928357
-0.680060366
1.968852154
1.020021129
1.695884496
-0.538308409
-0.978419276
0.901304318
2.190625281
2.982204351
1.140629804
-0.04101597
0.880447341
-0.479243225
-0.157891252
0.165496183
-1.347644011
1.251332502
0.12462458
0.872630968
-1.707319072
-2.408397994
1.854829899
-0.114434501
-0.005468637
-1.173968947
2.21573246
-0.455961273
-0.909078707
0.348007772
-1.109093962
0.406583404
0.755967827
0.770253571
-0.502161461
-0.687927038
0.750048181
1.802883336
0.55184819
-1.240373195
0.247986577
-1.31824337
1.496182258
1.324679775
1.759414353
0.856430017
-1.217373667
0.458885521
0.095712415
0.676709056
-0.603038155
-2.777546463
1.648799304
2.013273081
-1.84327303
-0.75048483
0.103462527
-1.027751779
-0.08662597
-1.119260274
0.332359517
2.060158503
0.634487838
0.115597517
1.694055474
-1.192787001
0.925851401
-0.047678694
-2.396558605
1.142252038
-1.737236057
0.369708815
0.842862764
-1.106712237
-0.608492355
-0.222263855
-0.871061028
0.031731193
1.140792383
-0.391112248
-0.485435688
-0.267549908
-0.877598743
0.600468111
-1.266270576
-1.72066951
-0.241166045
-1.13870513
0.825406328
0.607056725
-0.621609706
-0.6137125
-0.176660491
-0.811384357
0.781182962
-1.46862999
-0.988922089
0.150362757
-0.563219358
-0.76033093
-0.419028587
-1.643792011
-0.875452094
-1.338536871
1.149118431
0.531290376
-1.139741983
0.099487482
1.53747907
-0.114122089
0.450563093
-0.900233649
-1.08855196
-1.49527822
0.377660054
-0.1333745
0.530680392
-0.781476028
-0.013073029
0.096096448
-0.765231396
1.682580343
-0.713727377
-1.867613522
0.510035294
0.244921456
-0.628444045
-1.139473849
-1.251616509
1.503561184
-1.389368076
1.600858545
-0.024486539
0.989041203
-0.057762382
1.254535454
0.219025501
-0.592899136
-1.462121774
0.763855228
0.633341491
0.953036546
0.630765612
-0.472255241
-0.503924922
-1.157372371
-0.413723451
-1.017921604
-0.691960672
0.781432071
-0.01526016
-0.208621004
-1.099428668
0.009736892
1.553020607
0.370113089
-1.436491331
-0.007319809
-0.778457425
0.79113625
-1.604508025
0.257236782
1.148725005
-0.330446592
1.396320259
-0.73996912
-0.736906761
-0.585915201
-1.854078069
0.056208059
-1.16656574
-0.810721119
1.222708397
0.310787488
-0.060400809
-0.070052592
-0.082338813
-0.395980437
-0.173907141
0.346938733
0.491070364
-0.033975626
0.532217663
0.500614274
-0.247805887
-1.191188549
-1.001068603
0.067568075
2.872158136
-0.474247995
-0.243288013
0.736180781
-0.473766347
-0.385524986
-1.366119844
0.227875016
0.806395635
-0.528210116
-2.393832078
-0.413515819
3.007453523
0.92836563
0.283208062
0.070746491
-0.198060993
1.727119205
1.098406902
0.279688289
-0.948977013
-0.1185345
-2.061751348
-0.87934957
-2.904714688
1.725210882
-0.135328836
-0.547386359
-0.225659074
-2.65743618
-0.899322915
-1.854352244
-0.359026243
2.061012363
-0.542720281
0.072867992
1.404851118
-2.013473085
-1.679157189
0.309530233
0.603452025
1.948409748
-0.016997014
-0.821108882
0.495352794
-0.514888493
-0.583692336
0.97712432
-2.066168932
-2.071445164
1.599166986
2.008420898
0.976355153
-0.514118572
-0.868256316
0.216945947
-1.709654721
-0.134776268
0.666871156
-0.028165007
0.574819413
0.507503279
-2.256043219
-0.203348554
-0.1966318
-0.143144762
0.060598579
-0.615968962
0.058034239
-0.236111733
2.40272624
-0.454478779
0.350507896
0.685331321
-1.706538607
-0.33609541
0.621561026
1.427686192
0.314054918
0.929547877
-0.9016434
-0.255799473
-1.464180055
-0.865439988
0.233811614
-0.997845656
-0.234698246
-1.249467962
0.262998547
-1.12304688
-1.114166286
0.974508202
1.103186681
-0.48578023
0.852805116
-0.056614124
-0.374627049
-0.396156537
-0.873183643
1.387220429
0.163021876
1.751194621
0.980724284
1.602004888
-0.508149026
0.652617835
-0.657427587
0.595766828
1.871314901
-1.04338416
0.19380322
0.847920344
2.513546701
-1.458615964
-0.133679465
0.688824716
0.538602323
1.514826957
-2.132305138
-0.280117854
0.115665222
-0.449764641
-1.124152873
0.738956393
0.904889795
-0.407305391
-0.405063549
0.123195545
0.507467872
-0.848516681
2.3443083
0.070516348
0.95865554
0.522018206
1.576820188
2.273348992
0.584276349
1.135198381
1.151720443
0.279336156
-2.613405358
-0.804032274
-0.035739978
-1.712919821
-0.481938342
-1.222756215
0.481522316
0.871429549
0.437017189
-0.957807509
0.142829007
-0.831231843
1.602891579
-0.653459894
-0.677009669
1.148990165
-0.413955548
-2.058948326
2.674562935
-0.24385993
0.391356993
0.313055966
-0.213508997
0.75342261
0.874103451
0.989587771
1.396518742
-1.182532719
3.040319698
0.698210199
-0.38416183
0.000861861
-1.122366199
-0.16033704
-1.982359957
-0.109174947
0.305140035
0.075272157
0.762378946
-1.437722791
0.20650121
-1.359211057
0.677223013
0.803292343
-0.606793358
0.924806712
0.628179424
-0.321835462
-0.269177026
-1.017156766
1.117738461
2.069225081
-0.407631908
2.224944759
-2.662267271
-0.961764912
1.900448745
-2.776079494
-0.701926623
0.295360724
0.492851632
2.079973203
-0.223157468
-0.554137385
-0.822863204
0.41275968
1.083764174
-0.667257234
-1.292918489
0.077452657
1.389504563
0.613232237
-0.312296548
0.974860622
-0.014352104
-0.464507117
1.071709322
1.682611874
-0.665692446
-0.709218779
-0.680834757
-1.304180526
1.785492528
0.983465312
-0.484378708
0.808824581
2.58353829
-1.08942691
-0.202494355
0.03928477
0.001600347
1.093216743
-0.02221706
-0.07739794
-0.290812364
-1.206571794
-0.033342592
-2.010601115
-0.895494973
-2.100346756
-0.179475359
0.697125989
-1.352804761
-2.035030552
1.532189752
-0.277249345
-0.279864675
1.259713851
-0.153817515
0.293523434
-0.10544332
-0.647307904
-0.166978981
0.37803801
0.593494206
0.326348469
0.609038016
-0.577539476
1.001733644
-0.039798294
-0.216453771
1.433752093
0.504852378
-1.565687152
0.128102563
0.718861655
0.221689147
-0.403456929
-1.351535395
0.156088197
2.015745588
0.338311078
-1.885340503
0.820092964
-2.200147194
-0.30382225
0.352472635
0.660132407
0.411772119
1.010198333
0.271550783
0.789780987
-0.292371174
1.467069097
0.116165679
1.131784921
0.534482204
-0.179017477
-0.795592731
-2.86268015
-0.443883149
0.111895296
1.026245287
-0.826577305
-0.449258145
1.000454981
-1.058406592
0.602360799
-1.594861985
-0.961015714
-0.666643827
0.502879939
-2.451584006
-0.863193779
0.518766004
0.887032315
0.876912832
1.631843665
-2.29619616
0.515987722
1.04390766
-1.757672026
-0.820550999
2.950147702
1.274555395
-2.125255327
-0.893680977
-0.574199978
1.584069806
-0.099393575
-2.453061181
1.550991101
0.578472037
-1.586323221
1.310797731
1.404339238
0.30924033
-0.346846613
-0.768009609
-1.979488528
0.113485323
-0.333356353
-1.921337268
-0.378775233
0.507759589
-0.27726507
0.319819986
-0.315741873
0.689661029
-0.540256533
-0.275991598
-1.408325157
-0.199924228
1.518693698
1.577688133
-0.666640332
0.814111643
1.427152631
1.291148673
-1.192871047
-0.915377164
-0.635328992
3.064789886
-0.326812785
-0.091495847
1.001080154
0.231827161
0.125189796
-0.04257336
-0.037581971
-1.013169975
-0.457375954
-1.839520387
-0.478374594
-0.107101845
-1.115647218
0.038472449
-0.630065327
-0.344610055
0.905213886
-0.402471129
-0.260240482
-1.96985964
0.845018912
-0.039408301
-0.927310769
2.236435505
1.460239061
-0.201152561
-0.708105515
0.437326777
0.420011378
-0.072112608
-0.41897768
3.329861336
0.14148287
1.718317602
-0.418404289
-0.636493771
-0.660717779
0.577850835
0.928503795
-0.11157012
-1.71708037
0.79968992
-1.040488778
-0.649395252
0.580599949
0.734966083
1.707101372
-0.064403825
-1.031483504
1.592939526
0.704625705
1.772875516
-2.052364275
0.372483018
0.482279718
-0.310011441
-0.298842459
-0.89494278
-0.651833674
2.927871394
0.122401886
1.283901784
0.711503741
2.882850228
-1.368409494
-0.006269313
-0.327650694
-1.36263243
1.196779957
-1.629134725
-0.201631771
-2.761827904
-0.044930757
0.725893005
-1.908733902
0.649270387
1.462324877
-0.508334347
-1.349819965
-0.407244088
0.920622672
-0.956224952
-0.880694719
1.14190757
0.210755009
-1.318130483
0.853303331
1.084288328
1.116677963
1.934636619
-1.405574325
1.468997661
1.031588739
4.048690103
0.203260811
-0.273087933
-0.690023584
-1.036468774
0.154379463
1.519696141
-1.393978951
-0.236308884
0.057557646
-0.263398761
0.883724141
-0.024722877
0.373096888
-1.283350514
1.183770124
0.838217416
2.877282818
0.466666145
0.519467656
2.024697744
0.587016414
-4.800115507
-0.976925479
-0.14629595
-0.682981582
0.024542306
-1.103894588
-2.450092487
-0.826471483
3.019330265
-1.054855351
-0.162448882
-0.814434723
0.163187607
0.541783284
1.212740864
0.96437493
0.282489327
1.331444424
2.883552767
0.645709133
0.248498006
1.642282227
0.648962678
-1.075712469
0.814845264
0.234846376
1.406211561
-0.390641684
-0.147270161
-0.892053861
-3.091011085
-0.970283891
-1.209316268
-1.487984764
-2.632972938
-1.164707869
0.50176984
1.835313906
4.615067247
-1.720120454
-0.316815886
-0.451679577
-0.676651519
2.44529657
0.204362483
-0.631807734
0.153072502
-0.858589067
-0.444908066
0.547802384
0.025073685
0.639095419
1.153729018
-0.586741435
1.157493436
0.939772141
1.680881656
-0.848905238
-0.269387138
1.698458001
0.325842521
-1.640906227
0.08223727
1.812559482
-1.685109408
0.747742258
0.657899852
0.152485056
2.310002129
-0.740785577
1.091671666
0.975282208
0.709369495
0.362878761
0.665084311
-1.193715033
-0.561306478
-0.888687321
-0.353383733
-0.349250192
-1.051026883
-0.522335503
-0.295834242
-0.66513659
2.023069498
-0.706537126
1.620735345
0.492635045
-0.080005186
-1.821570834
0.358250602
-2.007939366
-0.83911404
-3.098747074
-2.878101805
-2.018032169
1.508815118
-0.329738392
1.517386962
-3.53659852
-0.304501253
0.473757458
0.341881356
0.963653638
1.812554081
-0.15163878
0.002253348
-0.895231298
0.200639787
-2.358085143
0.127031017
0.826444806
1.31893285
-1.174547001
1.38647678
-0.715396165
0.313544277
-0.950168259
0.250079538
0.322202217
2.997797418
0.497992044
-0.332382607
1.018186355
0.467190346
-0.128847467
1.233985821
1.81559989
0.987576245
-0.741342654
0.834306949
-0.796333221
3.046032902
2.14697191
-0.172294415
-0.026205724
0.50884393
1.175096457
1.458074484
-1.169644154
-0.453272879
1.179310735
0.684686832
0.362439275
-0.263904834
-1.712533478
-0.67652213
-1.329562678
-0.893907662
-0.582641714
0.630140218
-2.441278787
-0.250324328
1.720870098
0.32588057
-2.052251531
1.423975857
-0.587926126
0.814651134
-0.981725683
-0.266779484
1.18710717
1.174426706
3.267616266
0.131151718
0.667086478
-0.624392755
-0.70454656
-0.677385555
0.120046489
0.478169539
-2.037512943
0.96615846
0.626639121
0.699759677
-1.581711052
0.304959492
-0.040320229
-1.504383989
-0.18870959
0.197771293
-2.102010593
0.204659169
-0.434531726
0.423333593
1.334750448
-0.745291488
0.255181455
0.479001599
-2.158934061
0.395680684
-0.447431471
1.198450682
-0.211580693
-0.147133622
-0.454613524
1.033703292
1.087354007
0.03671304
0.579003619
-1.071333584
-1.212906504
0.094174994
-1.087552252
-1.006617797
-1.428359231
1.574238881
-0.057148902
-1.527643989
-1.739342704
-0.655231373
0.619638035
0.490855622
-1.878116814
-1.006114836
-0.23694547
-0.054462137
-1.696979892
-0.706292757
-0.34529983
-1.398930454
1.373329468
0.384393857
-0.202653913
0.71734776
0.036222577
1.042968698
0.066116928
0.502143601
1.885860378
0.282778922
0.024866006
-0.073930937
1.498833753
0.003299353
-0.902709193
2.679239775
0.360959772
-1.205394764
-1.025854391
2.429650678
0.043930204
-0.2176073
0.545948322
-0.565382099
-1.698635259
0.048489307
-1.702429039
-0.933041496
0.474679082
0.427275569
0.502416697
1.08356675
2.498729143
1.527652725
-0.400582712
-0.958263474
0.255615233
-0.045330039
-0.277636423
0.017081677
-0.632750278
0.342607351
0.47277658
-0.554755529
0.830636027
1.635775888
-1.534043025
-1.165320156
-1.213766289
-0.822632634
-0.513869229
-1.216677965
-0.011455246
-0.554305241
0.620110007
0.282135102
-0.104109059
0.891818884
0.191265799
-0.807092178
0.629285888
2.312198011
-0.272220488
0.528684354
-1.456625198
-0.560250055
0.644699738
1.925398282
0.577680694
-0.30577835
-0.905664065
0.563984077
-0.03830882
-0.030643032
-0.27151343
-0.060112658
-0.53205475
2.208154887
0.228315211
-0.456854699
-0.760513068
-0.466077504
-0.400637891
0.085478497
-0.233778869
-0.508522295
0.130001961
0.160359445
-0.431417381
-0.765991538
-0.283633592
0.598809031
0.938322139
0.780438816
-1.561675088
-1.428774884
-1.009476192
1.61678525
-0.049151269
-1.248356656
-0.646587788
-0.494788288
0.412543968
-0.391240137
-1.277603145
-0.796907969
-1.497327892
-0.55900325
-1.320816121
0.95154748
-0.409691504
-0.484437533
0.353228312
-0.342409406
-0.568979633
-1.460750258
-0.743704525
-0.094335407
0.651665166
-1.247070563
0.788367648
1.533250408
1.148844333
0.306992145
-0.027071197
-0.280163375
-0.658364504
0.698788327
-0.912507378
0.400100141
0.179818848
-0.06063318
-1.810037008
2.123489928
0.365484957
0.054456936
0.010732586
1.289795273
-0.867070536
-1.219017506
0.425495647
0.031231796
-0.862264515
0.139986779
-0.837492899
-1.023077752
0.931398176
1.429134663
-0.866440437
0.291296485
-0.621348933
-1.309306733
0.803992937
0.062705014
0.160655022
-1.317899844
0.172982898
-0.706941772
-0.789780476
-0.595878124
1.218066479
-1.063063457
-0.752609412
0.732782406
-1.134902777
0.022820318
0.240560123
-1.215742812
1.241370477
0.761386791
-0.925820906
-0.633821626
2.029366516
1.708990672
1.463171988
-0.186050467
-0.10742832
0.126100973
-1.021951761
-0.046024404
-0.269014718
-1.49377745
-0.17069703
1.391663541
1.366037
0.789279881
-0.025826755
0.030896313
0.647803114
0.831176683
2.043426553
1.738845181
-2.389337607
1.479242597
-0.348385331
0.370867172
1.669573158
-2.064695356
1.696595836
-0.823132838
-0.094855885
-1.072584529
-1.363427787
-1.640803868
0.803328873
0.412671023
0.697035147
-0.501227762
0.376052788
0.247554511
-0.420388841
1.570107134
-0.015652716
-0.524031286
-0.594062656
0.22538228
0.25408072
-1.5542251
0.697819206
-1.136659174
-0.707094709
1.32072091
0.455311255
0.144699782
0.737301012
-0.914123499
-1.062368774
-1.170703768
1.236732644
1.780391065
-0.407308804
-1.208179632
1.061603409
0.103343152
-0.182417811
1.584334295
0.996416287
0.212119645
-1.136780896
0.594767493
0.393361572
-1.202663377
-1.460293083
0.106274416
1.39229352
-1.01089844
-0.386143068
1.951120654
-1.741466072
-0.054094987
0.660092557
-0.371265802
-2.18877726
0.279224435
0.186632502
-1.40935809
1.322533131
-0.29229118
0.919739064
0.666769815
1.415189496
-0.791740231
0.617874288
-0.311263202
0.998039638
0.886727188
1.267780593
-0.066982669
0.43073167
0.688433682
-0.146621832
-1.613896128
-0.339078818
-0.308106612
2.091415469
-1.656548977
0.675822575
0.151377111
0.456461613
0.391406377
1.707892916
1.326748531
0.538457051
-1.114193141
2.091421024
0.264921334
0.326349898
1.818725397
0.348125133
-0.549421786
-0.006634324
1.209440866
0.232000838
-0.134801951
0.260373576
-0.436560969
-1.006465594
0.102881937
-0.923625043
0.043528142
-1.882809436
0.245630628
0.167180489
0.086121157
-0.583880427
0.296966382
1.204661422
0.90859525
0.980721706
0.969692586
-0.18056944
-0.370025468
-0.322945407
1.091943291
1.279659613
0.050656646
-1.902351699
0.999528232
1.027123166
0.048301614
-0.079336561
1.000691643
-1.117869687
1.135946191
-1.849413455
0.545642312
0.102576159
0.356410494
0.062288114
-1.508909239
-1.526597149
-0.542281648
1.795367651
-1.113753763
0.540018303
2.507482177
0.936733203
0.481001022
0.846002499
-0.385988445
1.513402173
0.355462328
0.992967806
-0.460208463
1.400990863
-0.297452135
0.007486125
1.868137197
1.04666501
0.534218768
-0.714247713
-1.067886806
0.419129121
0.587096315
-0.511949446
0.883192249
-0.571803314
0.209888586
-1.13236026
-0.244820111
-2.687831949
0.375217353
1.144119894
-0.077640493
-0.85877332
1.700668834
-0.052068136
0.309510301
2.557461911
-0.690044942
-0.695590596
0.425381635
0.723719394
0.266993319
-0.156982131
-0.39218463
-0.546805812
0.623409725
-0.723592783
1.529186266
-1.040394951
-0.302505161
1.155240978
2.142602405
-1.681702921
0.731199726
-0.268340851
1.615595194
1.344709308
-0.155717215
-0.119817478
0.457505677
-1.760138265
-0.385203552
0.712314352
1.274997295
0.322344303
-0.662021803
0.230997354
-0.604027525
0.068395893
0.19297327
-0.018615837
-2.030915134
0.371910087
-2.466123715
0.126476074
0.131878668
0.439249785
-0.739374654
-0.226971118
0.338153299
0.589213335
-1.439597733
-1.100153909
0.445954634
-2.31112033
0.689577785
0.964417033
-0.022843023
-1.562631304
1.257208535
3.089686298
0.2883287
0.427275044
1.72296937
-1.915861003
0.101811434
1.366605994
0.673847329
0.317280403
0.048046198
-0.198560932
-1.21251154
0.599437741
1.036493304
0.053810946
1.355682613
-1.003816193
-0.544253175
-0.280398212
0.997571248
-0.78961508
0.589557563
-2.312772256
-0.172315461
-1.01013191
-2.216382099
1.944516317
-0.766801599
-1.051938096
-0.013985413
-0.065706897
-0.078390956
-0.751287657
0.08423831
-0.395433142
0.582681953
-1.890824594
0.460468925
1.209249131
0.099843069
0.112557998
-0.982215323
-0.131795223
-0.730713016
-0.844725686
0.105503813
1.595654233
-0.415379987
-1.07523235
0.225644554
0.540759456
-0.729162981
-1.418717931
2.078478829
0.531429988
-0.960351002
0.343293184
0.189175014
-0.21347544
0.858001194
-1.293595159
-0.138019518
0.124658891
0.833674782
-0.509160542
-0.680550914
-3.983083608
1.773723449
-2.035457341
-0.20474542
-0.171859251
-0.518681896
2.557535885
0.353886859
-0.912062449
0.147940732
0.27904897
0.581497392
-1.06002414
0.18648993
0.65823875
1.259440443
-0.925666046
3.755156535
0.848344251
0.317826394
1.911465219
-0.469162587
-0.764695884
-1.272728178
2.067458753
-0.128387978
0.237229819
-1.554961934
0.414487492
0.918575035
-1.072047207
-2.185570107
1.057125529
1.302805743
0.008913169
-0.027595974
-0.472577985
0.554995415
-0.060123451
-0.883248613
1.078618917
0.258817511
-2.041136212
0.685445572
0.289404741
0.806270769
-1.05994236
2.218497532
-1.04064449
0.715938473
0.568158712
-0.568577413
-0.792722244
-0.556192123
1.217410462
1.392444946
-0.281222267
0.745400221
1.265123332
1.90696384
-0.61703539
0.785569814
2.734921446
-0.054421638
-0.540583575
-0.11401444
2.422120634
-0.784759014
-0.848122841
1.458427482
1.948115367
-1.931002857
1.451505512
-0.022511974
-0.611324729
1.138437493
-0.979626695
1.153536889
1.993818625
0.654434145
-1.049406574
0.385817669
-1.708460982
-2.654723545
0.811920787
0.839931611
-2.373180123
1.272303902
0.643582006
1.294030918
-0.567721712
1.40309513
-0.269446815
1.597249705
0.71718327
-0.158356955
1.039492458
-0.782882688
0.184079345
-0.157279484
0.44348102
-0.949147937
-1.476193783
0.407476349
-1.218282788
1.946063502
-0.642860559
-0.007609487
1.861339404
1.411227763
0.973682528
-0.151509491
-0.10127804
-2.802705314
-1.059132449
-0.201045703
0.694905051
0.249860733
-0.496450952
0.324299527
-0.422812546
-0.574593001
1.16668058
0.180145965
-0.083868937
-0.876207337
-0.033656806
0.416250524
-1.67416703
0.536121522
0.674405057
-4.556868748
-0.546178658
1.804912414
0.965562158
1.335953374
-0.146286202
0.750447189
0.04496456
0.905249473
-0.538671803
0.135413223
-1.147499401
-2.077047871
-2.985761123
1.18843526
-1.401931124
1.061388329
0.57560793
-0.520855054
-2.007741199
-0.082820483
1.427751611
-0.45227356
-0.020737679
-1.948519713
0.843784232
-0.658402027
-0.330317881
-0.084170768
1.404700726
-2.761608751
-0.741227351
0.248897616
-0.621422126
-0.359554571
-1.977750516
1.401000557
1.645777303
1.574621802
-1.051917571
-0.354320403
-1.144928112
-0.668981532
-1.255443577
-0.369229277
-0.528517325
-0.156264529
-0.20407626
-0.812657957
-2.639479377
1.302572675
0.709390194
2.02727343
0.363251353
0.062512594
-0.419175959
-0.845926305
-0.345704616
-1.588831886
-0.160439254
-1.035346556
-0.649854804
1.293226751
-0.212877498
-0.870067534
0.742384694
0.229398258
-0.478591948
0.845989404
1.229051622
-1.987416014
-0.468108266
0.639120223
-1.666561379
1.891826994
-0.720794802
-0.952531878
0.911257919
-1.992194523
-2.342001364
0.731745295
1.100515554
0.944544162
0.135146245
-0.580906038
1.311200936
-0.542682897
-0.385213738
0.739930278
0.861774169
1.466456903
-0.052973904
0.165606413
1.633063767
-1.153574357
-0.430736116
0.922281184
1.040129263
-0.248459069
-2.131750201
-0.559576172
-0.692476556
-2.538824471
2.95441528
2.698708841
-1.12355971
-0.322934534
1.313211473
0.709225677
-0.815123333
1.342183903
0.237954368
-0.324724537
-1.303391724
-0.011087012
-0.882928167
1.781189724
-0.944381727
1.014107919
2.131318831
0.704443068
0.958441425
-0.560031398
1.139016097
-0.191297045
-0.172345085
0.321179858
0.776466746
-0.162441329
0.91350997
0.914970206
0.123985652
1.14557025
2.353491764
0.76683479
-0.858108135
1.001695407
-1.162172185
0.373985465
-2.466294347
-0.250919733
-0.123262853
1.486624915
0.624250583
0.223197919
0.01943644
2.700281375
0.751681027
-0.535143628
0.5997456
0.698810688
-1.498200839
-2.121098098
1.355951478
-0.123314504
0.554939406
-1.361348128
-0.324442113
0.017647287
-1.093928964
-2.497076883
0.049025791
2.002711989
0.078793842
2.674894586
-1.160443491
-0.298330102
-0.02549853
-2.208365157
-1.463448001
0.422189987
-1.0790509
0.739509667
-2.846924366
1.295500087
1.017898015
2.377396449
-0.265211086
-1.671909416
-0.231016101
1.667893727
0.764984179
1.366415269
-0.999710063
1.296488828
-0.085292283
-1.0670262
0.721881092
0.362757649
-0.627300222
-0.233712218
0.155737216
0.666038908
0.87013719
-0.110546647
-1.235624074
-0.846211462
-0.396816271
0.194352205
-0.729915704
2.78064539
-0.664406235
0.480352737
-0.585053506
0.900864784
-1.30147667
0.825845843
-0.308109403
-1.298277348
-0.210715611
0.905887158
1.022967927
1.092899545
0.57440707
-1.086049678
-2.316012337
0.193082173
0.49629289
2.079502501
0.460485733
-0.019198392
0.418955983
2.396787051
2.189629685
-0.32676384
-0.760670346
0.938471828
-0.784465888
0.251203839
1.311408917
1.892474758
-0.990276691
0.764002445
1.254641311
-0.651831276
0.241153797
2.882072035
-0.423252864
-3.311833395
-0.930357933
-0.25642265
0.970011037
0.903631539
-1.268404082
0.419908086
-0.274955144
-0.67798349
-1.021494523
2.951872532
0.765614454
-1.038064595
-1.052350146
1.083965734
1.45552372
-0.416198532
-0.798430801
-0.652043549
0.035041362
-1.164710148
1.339349198
1.01216157
2.05840842
-0.43155449
0.48504282
-1.103923108
-1.388465249
2.195542806
0.586117596
-2.229433073
0.503485583
-2.530257072
1.861406042
1.193863895
-0.344806058
0.667555909
-1.271216147
0.335662526
-0.884898316
1.246719932
-2.23662537
-1.908041649
0.260696942
0.688945838
-1.145277266
-0.218473858
-3.485358649
0.495776172
0.766674464
0.056250142
1.259570075
0.963599318
-0.830277602
0.800611497
0.06707933
-0.339705807
0.19333285
2.363133814
-0.429860327
0.07817982
-1.226694638
-0.509265439
-0.010092802
0.522376177
-0.93680809
1.850910654
-1.47151587
3.477080096
-1.033853439
0.590447226
-0.462263113
0.095291513
0.035161112
1.350566627
-0.184262726
1.218522142
0.689698901
-0.241083367
0.853887255
-1.433128579
-0.83035629
-0.79829009
0.160037417
0.416999633
-0.595105054
-0.229635097
-0.550319381
0.912119872
1.583585649
-1.010229939
-1.228444742
-0.457659336
-0.592271321
-0.206603438
1.017967418
-0.246429032
0.556398016
-1.769127471
0.189750303
-2.326137047
0.70735349
1.513763427
-1.676288478
-1.371496662
-0.175733576
-0.658557122
0.046569021
-0.665256061
-0.610532794
-0.830662902
0.577136486
0.080036243
-1.389010322
0.969703623
0.616686682
2.655030853
-1.01612265
-0.61673119
-0.79878632
0.119974205
0.376104793
1.733951514
0.354582641
0.516031843
0.085106346
-0.337530863
-0.236946947
0.085290969
-2.137337437
0.211836869
0.87007854
0.220688588
0.090696853
-0.942148662
-0.210101044
1.160300616
-0.653732323
0.009679488
0.286487818
0.9041893
-0.828367057
0.484373145
-0.373567077
-0.579294623
0.309226986
1.94560763
2.36582049
0.752912835
0.300435318
-0.823830703
-2.204522078
-0.328627856
0.412099464
2.074118204
2.650157258
0.102078073
-0.471851204
0.821904406
-0.555297058
-0.470883198
-1.112538933
-0.652987332
0.055953707
-0.373020838
-0.740762984
1.690685471
-0.048903173
-1.275676883
1.451636975
0.592332081
-2.465084312
0.18139562
-0.267970463
1.912005317
-0.940714685
0.785977793
0.356217378
-0.471842305
-1.494783123
-0.383721922
-0.998640648
-0.123224902
0.609628181
0.732919892
-0.647223104
0.439769771
-1.380129995
-0.57126083
0.891146434
0.967303367
0.154500242
0.280986092
0.339650717
-0.960406167
0.286030133
1.421236596
1.078703426
0.540770999
2.504377731
-0.091052948
-0.478105335
-0.591546354
-0.937131086
0.945050629
1.725379268
0.109799231
-0.608177642
0.416562738
-0.938113945
-1.153671165
-0.27277497
-0.478642601
-0.853856242
-0.143041942
0.308245237
-0.870237793
0.519600182
-0.54054173
-0.808825503
0.491961196
-0.748607574
-0.611594495
2.008758429
-0.137951046
1.186663658
1.211305777
-0.662407068
0.956728933
-0.713512006
-0.093932512
0.099861801
0.120341017
-0.488893301
-0.714832129
0.636801804
0.854068065
-1.348888425
-0.288226797
0.44479488
1.037901297
-0.837114515
0.934412847
-0.043358311
-0.020474154
0.925889598
1.262683451
-0.169841737
-0.227527988
0.698862128
0.397715892
0.59766277
-0.176617009
-0.328772808
1.189233877
2.11894463
-0.028033086
0.005629564
0.934194983
-1.018839693
-0.419015802
1.851076596
0.643379548
-1.38213455
-2.643560408
2.287279035
-1.634186153
1.283887434
-0.592716449
-0.717832453
2.454573721
-0.110537453
0.3912087
1.14796817
-0.650144976
-0.555088679
1.08571151
-0.359821813
1.167771138
0.498091665
1.830334462
0.997502911
1.251679603
-1.098288279
-0.064384684
1.121631079
0.326841392
-1.256277674
1.678685686
0.573788532
-0.154135527
0.484571486
1.869923966
0.412433344
0.594975956
-1.015695177
-0.476580703
1.479433765
-0.16002918
0.076772051
0.1057595
-0.63920277
1.055268934
0.212645741
1.256339529
-0.355282062
0.73108346
-1.412807653
0.713634798
0.625132344
-1.765391164
-0.13162334
0.590638497
-1.341637382
1.802561838
0.499516249
0.718939559
-0.431680058
-0.206870119
0.771922349
1.462665466
-0.305851736
1.950984623
0.140924727
1.558309503
0.561804201
0.908164652
0.699798429
-1.86173059
-0.757640519
0.009635559
1.192744876
1.245296712
-0.167508565
0.372124994
2.424857238
-0.74634093
-1.804707691
0.73793369
-0.211239051
-1.645818427
0.872445225
1.110909232
-3.884640184
1.206778365
0.00810593
-0.707986566
0.725045517
-1.067204351
-0.509923178
-0.680340126
-0.380223239
-0.168420238
0.005703452
-0.485763346
0.916263382
-0.834878109
0.618414396
-0.351976872
-1.298856392
-1.210256993
1.557024476
-0.587611263
-2.305125118
0.051297405
0.463308814
1.627221016
-0.94931274
0.059773937
0.50444423
-1.273011363
1.450140821
-1.074112177
-0.283619431
1.634733682
0.044218216
-1.395097382
-1.393120109
1.597148859
-1.215932293
0.621264781
1.25292566
-1.849207153
0.169729724
0.05439284
0.276137871
0.087807288
1.109915121
0.747324392
0.741869372
0.158390822
1.93662259
0.680661605
-0.11829423
0.745456613
1.963460559
0.687093934
-0.803077967
-0.441708579
-0.646880462
-0.498128419
0.517605312
-0.116511207
1.858343441
1.834424662
1.086869208
0.738203763
0.276240884
0.804581835
-0.268512231
1.400636546
-1.87882922
-0.493270389
-0.261589138
0.756537909
0.018173219
-0.931457108
1.082734926
1.134828936
-0.050697719
-0.072272037
-0.51513291
0.590537532
-0.874486399
1.904697326
-1.621944166
-0.910757413
-1.459974682
0.84492477
0.776271972
-1.070944818
1.680161302
-1.739791914
-0.500584983
1.42714944
0.603935442
1.542026956
-0.080068645
-0.69979079
-0.095056933
-1.170604299
-5.050267329
0.147382554
1.28861902
1.387809356
0.122446037
-1.935608872
-0.627632356
0.605039606
0.331787293
0.189025885
0.290869843
3.025785512
0.491854914
0.179796519
1.173479222
0.096666426
-3.184582687
1.590279876
-0.256362067
1.424104858
1.129017702
-0.445087694
-1.273978958
1.087606312
-0.402599735
1.518513679
-0.764399838
1.499123321
-3.060423681
-0.89293387
-3.357613374
0.379560214
-1.040565342
-0.776004041
-0.157523159
-0.152306998
1.204027836
0.617844798
-0.562419308
-0.229002566
0.438516998
1.553305203
-0.484202467
0.315340539
-0.237628197
0.342360372
-0.54348975
0.892720161
0.728587447
-1.626247384
1.105044337
-0.016452169
-0.439229672
-0.528582572
-0.890928802
1.418054939
-0.516033916
1.470528612
-0.705455309
0.315050252
-2.542308826
0.473231886
-0.163370483
4.005767763
1.049151027
2.07290875
0.509349963
1.413047354
-0.150054959
1.870842574
-1.01021879
1.213823763
1.147679359
-0.419275084
0.968967936
-0.136099388
-1.155404093
1.13743734
0.12346989
-2.545792318
1.227861645
-0.250778351
0.045744581
-0.916580534
2.115774288
0.38576988
-0.438045147
0.286757958
1.113627906
0.228595001
-0.113000611
0.011450057
0.854332791
-0.451931433
0.22881566
-0.132316337
-0.351480221
1.141718492
-0.939405191
0.31065412
0.524909618
-0.197890429
-0.930657956
2.733901494
1.388817297
1.299331981
-0.187281044
2.075616781
0.162042512
-2.844033223
0.262524025
2.188023528
-2.151440156
-2.598930041
-0.223677408
1.069222709
0.846741227
0.340770103
1.248509317
0.319483026
-2.093837231
-0.496179598
1.052396663
1.331711222
-0.242674613
-1.913015867
-2.210789016
-0.387905286
0.139839042
0.371837347
-0.56335952
-2.683368083
0.433381581
0.621800809
1.251264899
2.82334704
-0.244113235
1.129769719
2.129098836
-2.05345806
-1.495251856
1.250847177
0.76604873
-1.848201892
-1.31097494
0.546195929
-0.420461963
1.616207443
-0.111742732
2.536796398
-1.865710566
0.302356532
0.04572286
-0.649970586
-0.648540538
0.901550276
0.342576021
-0.905380472
1.114638172
-0.684999767
1.396911105
-6.949879694
-1.037423981
1.17502249
0.276625815
0.108668376
0.043185116
-0.658142652
0.296306591
-1.870401996
0.031862792
0.62615976
0.510012429
-1.408575083
-1.501284178
1.635032245
0.112041154
-1.360084167
0.549042183
0.716392412
-1.88193607
-0.201364339
0.564582173
0.181359202
1.455443224
-0.955352712
0.935795686
1.917871326
-0.932429806
1.00293144
0.717601415
-3.338151684
0.485542973
0.643811185
1.249090333
0.237095062
-0.655641942
-0.335945975
1.685357485
1.053629836
1.494416853
-0.555863493
0.975229241
0.732551049
-1.821556804
0.307720171
1.845473776
0.329684684
1.289442863
0.034757348
-1.60020315
0.78854873
-1.519004119
-2.154293486
0.564741782
0.155396055
-0.198902377
2.555615029
0.154708544
0.030019943
-0.65767728
1.010558008
-2.096045352
0.789676709
0.440700055
-1.022830798
-1.910477416
0.524196129
0.079960298
-2.088513268
0.971798331
1.003250116
0.334348866
0.394279459
-0.305748758
0.902933121
-0.442925406
1.331142685
0.659521193
-1.395500162
-1.937163743
-0.612815431
0.783839759
-1.340890202
-0.43265874
2.148746529
1.1182136
2.469355967
1.378803392
0.643326125
2.961525199
2.43051074
-0.541291276
1.56574089
-0.177681105
-1.997172546
-0.080780755
0.563854858
-0.426278891
-0.329585037
-0.095423169
0.451272573
-0.334975596
0.222619854
0.509952001
1.313328993
0.265825427
0.129353151
2.158874791
-0.488874139
-2.892802524
-0.001390416
-1.319465039
-0.966090607
0.849814069
-0.502118876
-0.741237851
1.351706078
0.54304704
-1.774915708
1.581232714
0.90617833
-1.531318675
1.496122539
0.69903285
-3.016961675
-0.159950613
0.484410423
-0.301262991
-0.620523509
0.004646641
-0.285429455
-0.885726688
2.072187871
0.474943159
2.066614939
0.3607126
1.030020171
0.08245523
1.926821946
-2.227193697
1.470050067
-0.312815325
-0.271206641
2.500147856
1.067174859
0.245405073
1.49432723
-0.246488888
0.132022146
0.819829182
-0.015522236
-1.890602876
0.614475872
0.761697544
0.015957046
0.064938695
-0.652768265
0.68099886
-0.87127364
-0.042331871
-1.43499197
0.923109347
-0.110695001
-1.753261466
0.628869193
-1.214016941
1.378467083
-1.108528182
0.317302286
-2.627176463
1.066025242
-1.523109848
-2.06748234
0.02240799
-0.617304638
-0.380184895
1.665008524
-0.22875357
0.31034902
-0.466168465
0.27652292
0.544305798
-0.783390468
0.056867408
-0.417012905
0.621842487
0.135160987
0.23713696
1.649604423
-1.250794121
0.781545787
-1.13608416
1.670576706
1.338371876
1.075413917
0.050582927
1.244701452
0.143298751
-1.085341063
-0.053087991
-0.864826109
-0.598588652
-1.294353922
-0.020002122
-0.709648462
-0.780746532
2.034905196
-0.936489135
-1.127374689
1.865411747
1.421309522
0.180737759
0.057435426
-0.594901532
-0.303535373
-1.327724267
-0.665735728
-1.350459902
-0.484066899
-0.574367951
0.112706211
0.485532567
1.581363077
1.487280776
0.803768599
-0.787848691
0.096533022
2.290333263
-1.650569355
1.023721512
1.506494186
-1.401845264
-0.393809062
-1.330084522
-0.809516389
0.136661512
1.635379038
0.212296793
-2.73998209
-1.234892621
-0.76310006
-0.153124499
1.473505691
1.864019921
-0.425506593
-0.263460253
-1.280293404
0.057464817
1.935874631
-0.294099082
-2.588929924
-0.459715832
0.454597609
0.759093917
-1.491252326
-1.196812663
-1.066303979
0.412116968
0.699474813
-0.408957224
0.82145583
0.469443075
-1.638321598
0.635229012
-0.532468684
-1.068266442
3.805512081
1.407548918
-1.603198907
-0.398423593
-0.086634345
0.013223265
1.427430482
1.148851268
1.846414186
-0.535394268
-0.017414774
-0.955631538
0.809139422
1.58899791
-2.13087233
0.960748353
0.313713898
1.794204333
-0.417232412
0.489022438
-0.457840312
1.133710091
-0.472151419
0.354596039
0.004513767
0.512179971
0.322009963
-0.660025213
-1.887621118
0.191288847
0.754284374
-0.020550145
-1.174262488
-0.253947414
-1.65574628
0.810625198
0.849078983
-0.140399191
-0.197230992
0.095788606
1.425069247
-0.898207292
-1.81336682
-1.030664366
-0.267932153
0.142412843
0.321043549
0.591096074
-1.261080056
2.629477087
1.753015438
0.423124812
1.109933729
-0.781228842
-0.638535947
-1.233012194
-0.420967963
-0.518949773
-0.242011968
1.244595282
0.257704037
0.359209599
-0.545508638
1.481672535
1.884668476
-0.413293597
0.758507898
0.236790666
-0.520832827
0.462821946
-1.612185029
0.079336818
1.096599312
0.284527621
0.73407624
-2.19809419
0.595453774
-0.076548006
0.820025047
-0.311135126
-3.296982413
-1.481015779
1.170255407
1.956982388
-0.354160017
1.190032256
0.206216022
0.149278494
-1.475973307
0.041581104
-0.357514999
-1.674072327
-0.808242069
0.155699839
-1.019700951
0.349646205
-0.649299888
-1.558189362
-0.527156688
1.145026426
-2.81215774
0.338600732
-0.914490813
0.35140494
0.111162632
-0.653279711
-1.685178904
-0.107646661
-0.227488198
0.53850076
-0.083140118
-2.063976666
-1.149194017
0.425609024
-0.585696201
-0.612364874
0.048679111
-0.09431584
1.247663424
-0.007612308
0.442976577
0.47902498
0.510573926
-1.693047565
-0.3456324
0.643514769
-1.043265883
-1.737103787
-0.057033774
0.36465548
0.893933515
-0.549208485
-0.697312449
-0.639512041
1.248215934
0.015019865
-0.415825469
0.425263312
0.561986866
1.189428609
-1.880106376
-0.43967499
0.688882185
-0.187021813
-1.501986518
-0.563406368
-0.74110332
-0.310896632
-0.343306198
-1.438591985
-0.112493124
0.891962523
0.010888883
-1.338948297
0.430913501
-0.714806537
-1.11175589
-0.455493668
-0.40800332
-0.62657618
0.793087278
0.116158142
0.745395605
0.297120681
-1.508329331
-0.303405744
-0.842699927
-0.048516192
1.329501955
-1.230429827
-0.711692944
0.718544316
-0.821648072
0.443674326
0.32839457
0.903482338
-1.497907717
-1.461997604
-1.014146609
1.197543991
0.118353096
1.260039229
0.506033921
2.522904995
0.729991166
0.075734579
0.092325873
-0.34972319
0.434496917
-1.313179347
-0.03384657
0.242404648
-0.466412685
-0.480625551
-0.699950409
-0.604580894
0.351859047
-0.584506369
0.79154688
0.233450191
-0.440379061
1.008659628
-0.945761555
1.716798948
-0.269407948
1.182378749
-0.986313891
0.757453507
0.519056949
1.91019659
-1.252306328
1.233051543
0.440841972
-0.638794169
0.85519814
0.038594484
-1.027462383
0.433625563
0.07471513
-1.209841539
-0.041122792
-0.265900342
-1.656646656
-0.01601669
2.308003936
-1.661880682
1.558929014
1.092227838
0.33214469
1.211728723
1.506175934
0.198017928
-1.009314037
0.67554468
0.28288235
0.964949774
2.333262668
0.742197544
0.99531629
0.56598747
-2.839833365
1.729143805
1.199294588
1.725376721
-1.257803707
0.016610826
1.983540655
1.269898767
-0.035410966
0.270197931
-0.067588116
-0.793022111
-0.413133942
-0.42735657
0.175354542
-0.55887956
0.095965377
-1.295168541
0.275969346
0.280178858
-0.862102381
-0.462619227
2.064880377
1.536976151
0.648408265
-0.051939292
0.65816567
0.290503615
1.650274685
0.840475501
-2.875869418
0.712945296
2.202012342
-0.14216675
-0.209567638
-1.257175051
-0.153253105
1.945042675
1.360797947
-2.607273721
0.413631316
-1.039053153
1.708467601
0.305816424
-2.340771278
0.712819736
0.348234061
-0.387934441
0.47183918
0.822986188
-0.269373312
1.463297333
-0.014435319
0.192419387
0.464130529
0.753442784
-0.097635065
-0.000963551
3.512966692
0.177928406
-0.249690017
0.99058526
-1.070158153
2.04521834
-1.213684614
0.054492663
1.402459612
0.058298463
-1.291444186
-1.251208688
-0.509281064
0.700926015
0.078535629
-0.133915734
-0.344276468
-1.526046403
1.993507877
-0.062766275
1.221624041
1.336409161
-1.035750505
0.498950856
-0.518428266
0.392824002
-0.19279403
0.331143007
-0.590531917
2.499109586
-0.695825192
2.323273927
-1.101854696
-1.709995223
0.009087181
1.39324073
-0.930212585
-0.729814502
2.23848456
0.281818403
0.737657295
-2.626177693
0.962185704
0.870668368
0.117696175
0.047479537
-0.217852507
1.264077736
0.807938839
-1.035873824
0.339544855
0.537766684
0.786221248
0.027956085
-0.417227278
-1.63591241
-0.788882951
1.404329301
-0.836206337
0.720758278
0.315782771
0.064044467
-1.895848573
-0.792244539
0.613808992
2.589798674
-0.812948315
-2.564330226
1.081568573
2.207258018
0.996477405
-2.372813992
-0.078741709
-0.551965898
-0.460778924
1.668955448
-1.281583829
0.692549536
0.567836651
-0.555422071
-2.292640654
-0.761399636
0.378128006
0.08587069
-0.31535078
0.593515504
-0.7168208
1.610251951
-0.169454249
-0.915301242
0.994046959
-0.680979997
-0.600183143
-1.689376325
-0.063543874
1.680226775
-0.507119416
-0.261861406
0.634298482
0.161012933
1.265831318
-1.505813676
-1.409241541
-0.817276419
-0.083464362
0.754363566
-1.446609318
-1.608369915
1.308548354
-0.348491553
2.138102401
0.755389776
-0.075588129
-2.233845238
1.411833388
-1.906666885
-0.71976214
-0.512801231
-0.099197392
-0.607608963
-0.228710282
2.270378807
0.668668828
-1.388854672
0.372576408
0.595089708
0.853074216
-0.41977711
0.987440422
0.393683264
0.259381108
-1.268603808
-0.130156319
1.164935898
-0.437863204
0.560156248
-0.796779903
0.439175753
-0.132151579
0.363592579
-0.071529639
-1.119136029
-0.003950022
-0.521228266
-0.633421794
-1.486171326
-0.973728642
-1.74205954
-2.450334955
0.547491295
0.17573621
-0.894172446
0.938889053
-1.295909038
-0.851433771
2.187442482
-0.450674917
-1.757292633
0.709476197
0.551522775
-0.039429844
-0.873869687
2.089236846
0.965823904
-1.973828614
0.678867097
0.844901498
-1.90736486
1.449325149
0.408598621
3.074890213
0.610832007
-0.149484777
-0.105405954
1.668578998
-1.918115037
-0.267351347
-0.348863137
-0.448121791
-2.180371063
-0.390613905
0.069540692
0.983915818
-2.583877363
0.596968347
0.358895948
1.584274565
-0.475617542
0.942710592
1.732196613
-0.451943101
0.231207508
3.35256069
-1.564802115
-0.309623039
1.206994617
-0.802675035
-3.517913083
0.619317366
1.285190637
0.97756878
0.197793651
-0.106236448
-0.646632304
1.95194023
-2.046387013
-0.695352913
1.854259493
-1.907239673
-1.264723302
-2.074043743
0.659679435
-1.744491735
1.316822492
2.392966295
1.036273645
-0.464083912
1.47739165
0.453944085
-1.912761182
-0.005573901
1.632331083
0.006707602
-0.379133059
-1.49459119
0.609584261
-2.063506559
-0.306419335
-0.781226733
-1.196100064
1.373674809
0.288527113
0.553740225
-0.322972035
0.689393973
-2.278923338
-0.247523982
-0.959280202
-2.395965455
-0.013082832
0.71993528
0.228255763
-0.556233195
0.205012598
1.158791856
2.013517221
-3.33450499
0.713516485
0.969567883
-1.552728781
1.885147091
-2.729545455
-1.042625402
1.95560645
-1.071775352
0.824815253
0.830721034
-1.525061719
-2.923188985
0.316625868
-0.275125488
0.957969323
-0.969026613
0.831278183
0.54223326
-1.087013087
-1.015902059
-0.304198773
-0.923579215
0.912267386
0.122979378
1.073233648
0.499999564
-1.881295203
2.914777521
0.727224817
-4.603500442
0.632133606
-0.019376961
0.851390933
2.311633279
0.209285665
-1.244563094
1.048608107
0.125984916
0.278148662
0.813041822
-0.397541271
-0.499329862
-1.503113943
-0.006328401
0.33656576
1.014229862
2.039249938
-0.315874055
-4.106951666
0.187743712
2.470894978
-1.901058494
0.203905288
-0.418196998
1.524238248
0.367197098
0.573172761
-0.206443229
0.185687586
-0.546849199
1.164085842
3.031457275
-0.525492893
-0.24094289
-1.821711253
0.364740374
3.155939897
-1.84889976
-0.007196474
1.873167486
-0.921280073
0.995538483
-1.643568266
1.722519474
1.303276391
-0.225153689
-1.373533887
0.092274917
-0.049839133
-0.106669295
0.681662793
-1.062182813
-1.375008938
-0.767165787
-0.640757748
-0.280400936
0.519735935
-0.561452332
1.496159147
0.002206378
-0.688641176
1.072522646
0.77359771
-2.149757564
-1.406708868
-0.139745545
-0.734194664
-0.480427815
-1.666117371
-0.107698626
-0.4207305
0.806977548
-1.025326272
1.109346053
1.813115234
-0.462283459
0.846243546
1.378505319
-2.477276237
0.267768434
1.776047317
-3.603592853
0.603856083
-0.804581263
-0.002714888
1.012921613
-0.624127626
-0.919360595
1.279226015
-0.59646309
1.297902052
1.951439029
0.734505178
-0.3271592
-1.886018555
1.532144068
0.275039853
-1.340746172
-1.125449429
-0.452273298
-1.763615198
2.059193377
1.399320025
0.588236972
-0.860805451
0.899685599
-0.102750884
1.567803778
-3.143654817
-0.157509796
-0.54310955
-1.162619176
-0.91353507
1.229935291
1.949372904
0.900863291
-0.753766514
-0.468265936
0.373653354
1.866209435
0.827221371
1.510924113
-0.315919521
-1.049900088
-0.768317999
0.089104483
0.228407204
0.53938606
0.909188907
-1.239080538
-2.656515552
0.521117745
-0.466368738
0.734769974
0.946642515
0.102079496
0.44347948
1.025343991
-0.551771935
0.285770588
-0.827413414
-1.658762978
0.943225338
-0.844432979
0.065626839
1.359160414
-0.481502057
0.082885969
1.490697898
0.034063811
1.72670375
0.868076272
-1.440875643
-1.113345337
0.371204147
0.758685297
0.982861373
0.568638861
0.428964118
-0.251873635
-2.015861452
0.76196619
0.700847314
0.95800096
-1.137276946
0.250407731
0.144540999
0.403773095
-1.984673964
-0.407719174
0.976264746
-0.540697133
-1.741316648
0.618299206
-0.062771272
-0.641173039
0.640147573
-1.425545818
1.023410993
1.225696519
1.51205662
0.283683121
0.349160173
-0.712393264
-0.35746475
-1.352175053
-0.239857677
0.129930244
1.19446043
-1.211333134
-1.071501707
-2.105043067
0.911697325
-2.966037278
2.589283789
-1.536314541
0.551182094
-0.243598157
0.532128524
1.053859082
-0.897478189
-3.284087762
-1.215795352
0.277275334
-0.944006026
1.081353127
-0.436875379
-0.817880926
-0.140201142
-0.224032775
1.184236102
-0.423678499
0.453462448
-1.803248085
-0.531122656
1.668111306
0.592322267
-0.773670649
-0.499559405
-0.791360235
-0.523944281
0.812549487
0.713490981
-1.055989127
-1.785988119
0.340503995
0.707826438
-0.105843056
-0.028735231
2.213781577
-0.008439573
-0.864675972
-0.103245902
0.678118875
-2.436241905
2.35037488
-0.818579074
-4.357506655
0.393551724
-0.916146766
-0.091622179
1.413014566
-0.08727607
0.3957751
-2.86831075
1.054508346
0.232624261
-0.451611537
0.858870213
-0.601941102
-1.67098395
0.052973804
1.956821925
-0.61589103
0.255607334
-0.07986068
0.342606773
0.625137779
-0.928687275
2.051485257
-1.543156328
-1.238124923
-0.045749089
1.19803161
-2.079377853
0.412939328
1.439992256
-2.794896459
-0.926641351
-0.703181573
1.578942772
1.088630268
-0.783217057
-0.32767702
-0.04839063
2.339541992
0.013694526
-0.969654333
2.557717355
